tree
version=v4
num_class=1
num_tree_per_iteration=1
label_index=0
max_feature_idx=8
objective=regression
feature_names=price promo dow week lag_1 lag_7 lag_14 rolling_7 price_change
feature_infos=[8.2703853441920536:21.072968969927022] [0:1] [0:6] [1:52] [7:68] [7:68] [7:68] [13.142857142857142:53] [-0.23444725899468588:0.28416989581943342]
tree_sizes=2821 2923 2919 2927 2929 2935 2924 2904 2940 2926 2923 2945 2927 2907 2931 2915 2926 2910 2918 2920 2913 2925 2955 2930 2922 2923 2922 2962 2923 2960 2942 2945 2945 2940 2933 2945 2949 2949 2941 2950 2967 2958 2967 2968 2947 2947 2939 2976 2938 2964 2960 2960 2945 2958 2924 2986 2975 2929 2933 2969 2964 2926 2957 2954 2918 2949 2972 2954 2966 2926 2953 2976 2973 2970 2981 2936 2976 2964 2990 2960 2988 2959 2972 2937 2992 2967 2947 2994 2982 2968 2977 2972 2962 2979 2952 2944 2948 3005 2993 2946 2945 2935 3012 2953 2956 2944 2968 2954 2926 3009 2984 2974 2940 3006 2926 2964 2941 2902 2992 3010 2948 2961 2959 2992 2996 2937 2943 2986 2965 2990 2970 2922 2940 3007 2939 2955 2954 2990 2983 2949 2956 2958 2939 3011 2915 2989 2978 2952 2952 2967 2970 2956 2855 2989 2987 2941 2941 2924 2945 2983 2949 2984 2968 2986 2954 3010 2944 2929 2949 2999 2972 2984 2943 2971 2956 2960 2994 2951 2932 3005 2987 2920 2962 2961 2964 2931 2935 2980 2919 2941 2883 2953 3011 2975 2971 2944 2895 2969 2962 2936 2968 2887 2895 2932 2922 2934 2957 2911 2957 2971 2848 2950 2980 2967 2941 2905 2954 2935 2956 2948 2922 2936 2955 2881 2898 2901 2887 2953 2864 2952 2924 2834 2891 2954 2922 2971 2971 2957 2975 2982 2935 2947 2982 2876 2915 2907 2871 2922 2935 2963 2954 2899 2922 2978 2939 2880 2973 2977 2920 2912 2861 2960 2896 2874 2888 2859 2974 2866 2904 2875 2878 2961 2863 2917 2943 2981 2937 2960 2922 2908 2890 2963 2903 2764 2840 2858 2946 2839 2919 2867 2873 2950 2871 2825 2888 2830 2956 2876 2816 2945 2759 2950 2948 2858 2922 2895 2855 2906 2934 2867 2967 2872 2885 2975 2899 2815 2916 2953 2809 2927 2843 2795 2936 2876 2887 2842 2916 2910 2890 2883 2761 2864 2819 2895 2845 2921 2861 2856 2903 2920 2908 2817 2738 2798 2885 2892 2898 2921 2940 2844 2924 2853 2891 2941 2930 2909 2876 2861 2843 2815 2887 2865 2784 2948 2931 2875 2882 2775 2862 2924 2918 2865 2759 2876 2850 2921 2855 2864 2847 2900 2816 2915 2926 2822 2854 2948 2859 2868 2904 2809 2940 2807 2911 2896 2825 2941 2793 2890 2910 2868 2866 2918 2844 2845 2848 2825 2828 2853 2857 2754 2812 2869 2898 2848 2870 2781 2880 2861 2786 2848 2925 2857 2763 2808 2845 2902 2816 2817 2853 2814 2889 2911 2900 2819 2804 2801 2862 2822 2784 2757 2858 2905 2942 2805 2836 2891 2834 2786 2877 2880 2851 2839 2826 2877 2814 2748 2822 2813 2837 2887 2799 2836 2889 2854 2961 2875 2846 2809 2900 2803 2811 2931 2832 2805 2830 2901 2908 2813 2905 2774 2864 2751 2783 2890 2841 2823 2806 2861 2873 2861 2807 2774 2907 2886 2858 2792 2830 2837 2812 2812 2806 2894 2891 2863 2884 2864 2830 2824 2867 2904 2756 2895 2825 2852 2760 2752 2823 2857 2786 2899 2830 2774 2793 2884 2814 2828 2793 2849 2798 2957 2878 2881 2808 2822 2825 2800 2826 2860 2848 2789 2821 2780 2795 2752 2839 2820 2922 2838 2892 2848 2828 2759 2875 2865 2820 2799 2866 2850 2945 2772 2876 2823 2798 2813 2860 2778 2844 2793 2831 2851 2852 2770 2774 2893 2858 2787 2827 2867 2879 2842 2755 2774 2800 2876 2847 2849 2742 2777 2832 2803 2896 2932 2853 2808 2886 2777 2842 2847 2769 2878

Tree=0
num_leaves=31
num_cat=0
split_feature=7 7 1 7 8 8 8 8 1 7 7 7 7 7 7 6 7 8 0 0 4 1 8 7 4 7 0 0 8 6
split_gain=3.12844e+06 590110 512467 368600 287240 153961 119979 106210 82079.6 78644.6 52152.5 50987.5 36443.7 31729.6 26967 25314.1 25214 24687 24086.8 28043.8 19147.5 18560.7 17418.7 16552.7 15283.7 14860.7 12588.5 12695.8 12283.8 11252.8
threshold=29.928571428571434 23.785714285714288 1.0000000180025095e-35 35.785714285714292 -0.018406927860469432 -0.0024568233847626071 0.004884688086756018 -0.020989253461275611 1.0000000180025095e-35 36.214285714285722 26.928571428571434 20.357142857142858 20.357142857142858 40.214285714285722 27.214285714285719 46.500000000000007 33.357142857142868 0.018218519170189466 14.006310009782299 13.040104658265586 26.500000000000004 1.0000000180025095e-35 0.020407427794721381 38.928571428571438 25.500000000000004 32.500000000000007 14.006310009782299 13.040104658265586 0.0094738309866257992 38.500000000000007
decision_type=2 2 2 2 2 2 2 2 2 2 2 2 2 2 2 2 2 2 2 2 2 2 2 2 2 2 2 2 2 2
left_child=1 7 3 5 8 16 15 12 14 -4 22 -9 -1 26 -3 23 29 20 19 -7 -12 -14 24 -5 -6 -20 27 -8 -13 -2
right_child=2 4 9 6 10 18 13 11 -10 -11 17 28 21 -15 -16 -17 -18 -19 25 -21 -22 -23 -24 -25 -26 -27 -28 -29 -30 -31
leaf_value=28.290880773936543 28.881424882170535 28.633693565444556 29.332665621535607 29.165888552981833 28.410680409272906 28.715279615986731 28.936689570818363 28.104649680948622 28.992636692638978 29.762227474065337 28.527500373602219 28.34418047105844 28.45848028886811 29.148109857978376 28.785497378009971 29.478536519050852 29.069384782741125 28.49610328223412 28.616085023484175 28.987719683486937 28.711564402687408 28.693953518554295 28.367064501002677 29.328698421640482 28.56317591060116 28.736567678011948 28.888954003940633 29.242055192751504 28.238019996271721 29.046352913183036
leaf_weight=3258 5901 6744 2539 3705 3723 2438 830 6704 2988 1836 2434 4356 4703 2462 5167 1274 3823 7283 5157 1542 3368 1018 7550 2698 2941 5081 4169 577 7277 1254
leaf_count=3258 5901 6744 2539 3705 3723 2438 830 6704 2988 1836 2434 4356 4703 2462 5167 1274 3823 7283 5157 1542 3368 1018 7550 2698 2941 5081 4169 577 7277 1254
internal_value=28.6752 28.4645 28.9986 28.9436 28.5817 28.8251 29.1336 28.2835 28.7583 29.5129 28.4854 28.2145 28.4244 28.9986 28.6995 29.275 28.9657 28.5574 28.7165 28.8208 28.6343 28.5004 28.4191 29.2345 28.478 28.6759 28.9326 29.0619 28.2778 28.9103
internal_weight=114800 69514 45286 40911 42198 25196 15715 27316 14899 4375 27299 18337 8979 8038 11911 7677 10978 13085 14218 3980 5802 5721 14214 6403 6664 10238 5576 1407 11633 7155
internal_count=114800 69514 45286 40911 42198 25196 15715 27316 14899 4375 27299 18337 8979 8038 11911 7677 10978 13085 14218 3980 5802 5721 14214 6403 6664 10238 5576 1407 11633 7155
is_linear=0
shrinkage=1


Tree=1
num_leaves=31
num_cat=0
split_feature=7 7 8 8 7 7 8 2 2 2 2 2 2 2 2 2 2 2 2 7 7 8 8 7 8 8 7 2 7 7
split_gain=2.82363e+06 517344 472815 252761 235324 218952 96411.8 63878.6 61694.6 60662.9 59092.3 57506.1 55135.2 51948.6 49327.7 44091.1 43166 41659.7 41389.2 41027.8 38833.9 24485.5 23941.1 22346.4 21711.3 17816.8 17715.7 17583.6 16783.2 16707.8
threshold=29.785714285714288 23.785714285714288 -0.01325825569388933 -0.018406927860469432 36.500000000000007 35.500000000000007 -0.012768546307671545 3.5000000000000004 5.5000000000000009 3.5000000000000004 5.5000000000000009 3.5000000000000004 3.5000000000000004 3.5000000000000004 3.5000000000000004 5.5000000000000009 5.5000000000000009 5.5000000000000009 5.5000000000000009 20.214285714285719 19.785714285714288 -0.081050181468744417 -0.071663173467518035 27.071428571428573 -0.075284354967667319 -0.07348102560600199 32.500000000000007 3.5000000000000004 26.928571428571434 40.214285714285722
decision_type=2 2 2 2 2 2 2 2 2 2 2 2 2 2 2 2 2 2 2 2 2 2 2 2 2 2 2 2 2 2
left_child=1 6 5 13 7 12 20 26 -9 23 28 21 22 24 29 25 -14 -15 -16 -8 -1 -7 -2 -5 -3 -13 -4 -21 -11 -6
right_child=2 3 4 9 14 11 19 8 -10 10 -12 15 16 17 18 -17 -18 -19 -20 27 -22 -23 -24 -25 -26 -27 -28 -29 -30 -31
leaf_value=-0.40331645893782686 0.43186857354832819 0.14042307212244196 -0.07737325741793212 -0.30235970721342093 0.21505682151059788 0.81915969719940973 -0.55610553896474513 0.27686198389596267 -0.016937506672087231 -0.084812428692337308 -0.25590691777580032 1.2398236525409363 0.59307763164171534 0.27489609973274526 0.63299968445967614 0.60147606637656859 0.27214347806743255 -0.0002423928109683162 0.28480140931741588 -0.44605035765233692 -0.19451598200775713 0.52265308671135235 0.20236043228198231 -0.18093230888340936 -0.050431659046765054 0.91028096376687528 0.051745900861301736 -0.31739404102485924 0.064122221455719483 0.40033953105814241
leaf_weight=3148 1499 1943 5088 8468 3409 880 5727 5268 2704 4040 3832 544 3114 4200 2553 1079 1579 2046 1282 6166 7610 3335 4696 6857 6393 1667 5559 4665 3557 1892
leaf_count=3148 1499 1943 5088 8468 3409 880 5727 5268 2704 4040 3832 544 3114 4200 2553 1079 1579 2046 1282 6166 7610 3335 4696 6857 6393 1667 5559 4665 3557 1892
internal_value=3.16079e-10 -0.203307 0.30245 -0.0917295 0.172164 0.49905 -0.372152 0.0701805 0.177209 -0.183009 -0.0958259 0.706836 0.355824 0.0757441 0.380006 0.863494 0.485097 0.184769 0.516601 -0.447868 -0.255615 0.584557 0.257894 -0.248028 -0.00594621 0.991362 -0.0099577 -0.390637 -0.0150796 0.281187
internal_weight=114800 68652 46148 41336 27755 18393 27316 18619 7972 26754 11429 7505 10888 14582 9136 3290 4693 6246 3835 16558 10758 4215 6195 15325 8336 2211 10647 10831 7597 5301
internal_count=114800 68652 46148 41336 27755 18393 27316 18619 7972 26754 11429 7505 10888 14582 9136 3290 4693 6246 3835 16558 10758 4215 6195 15325 8336 2211 10647 10831 7597 5301
is_linear=0
shrinkage=0.05


Tree=2
num_leaves=31
num_cat=0
split_feature=7 7 8 8 7 7 8 7 2 2 2 2 2 2 2 2 2 2 2 2 7 8 8 2 2 8 7 8 4 8
split_gain=2.55191e+06 498382 417506 224925 198787 183072 102400 57908.8 56455.7 55560.4 53176.8 49564.2 48700.5 48783.7 43908.8 43318.9 41471 41071.7 35898.5 34847.8 33087.2 23759.8 23092.5 21128.9 18464.4 18145.9 16307.6 16144.2 22382.1 15499.7
threshold=30.071428571428573 24.357142857142858 -0.01325825569388933 -0.012280817178686508 36.642857142857146 36.642857142857146 -0.026475783524297632 20.928571428571434 3.5000000000000004 3.5000000000000004 5.5000000000000009 3.5000000000000004 3.5000000000000004 5.5000000000000009 3.5000000000000004 5.5000000000000009 5.5000000000000009 3.5000000000000004 5.5000000000000009 5.5000000000000009 21.357142857142858 -0.061518329204582937 -0.071663173467518035 3.5000000000000004 5.5000000000000009 -0.081050181468744417 27.500000000000004 0.01555168027902243 30.500000000000004 -0.062769834354719153
decision_type=2 2 2 2 2 2 2 2 2 2 2 2 2 2 2 2 2 2 2 2 2 2 2 2 2 2 2 2 2 2
left_child=1 6 5 11 8 9 20 -8 27 22 -10 21 26 -14 -6 29 -13 25 -19 -16 -1 -3 -2 -9 -25 -7 -5 28 -4 -11
right_child=2 3 4 12 14 17 7 23 10 15 -12 16 13 -15 19 -17 -18 18 -20 -21 -22 -23 -24 24 -26 -27 -28 -29 -30 -31
leaf_value=-0.30037678417552227 0.44146810521404101 0.12607129479044485 -0.03931549204632008 -0.27733502702212764 0.27134675960937077 0.81787392464275932 -0.49462264374700704 -0.38344555800054325 0.27334194716724353 0.76338049541084452 -0.0047545490441790244 0.26546171940159013 -0.0052238025197912609 -0.23823792563934473 0.6047964004921299 0.28830177285008329 0.003157079234162054 0.98848513680173 0.59773288797967294 0.27879572963232507 -0.1061472344111269 -0.052434706445230898 0.2240842550762058 -0.19389488441321809 -0.38554799826161901 0.53243986580975222 -0.16661104570125407 -0.0485549952154683 0.20545827656826343 0.52925234164858037
leaf_weight=3985 1608 2635 1885 7619 5140 709 8756 7678 5054 1009 2605 4550 6669 3387 2482 1676 2253 1762 882 1224 4875 6372 5085 3849 1866 2594 5901 6478 1851 2361
leaf_count=3985 1608 2635 1885 7619 5140 709 8756 7678 5054 1009 2605 4550 6669 3387 2482 1676 2253 1762 882 1224 4875 6372 5085 3849 1866 2594 5901 6478 1851 2361
internal_value=1.3523e-09 -0.187231 0.296816 -0.0691842 0.17208 0.485259 -0.337167 -0.394634 0.0761338 0.370761 0.178755 0.0767266 -0.167032 -0.0837062 0.365936 0.496038 0.178592 0.711272 0.858136 0.497126 -0.193507 -0.000212733 0.276311 -0.329264 -0.256471 0.593709 -0.229008 -0.000817084 0.0819576 0.599352
internal_weight=114800 70395 44405 39386 26719 17686 31009 22149 17873 11739 7659 15810 23576 10056 8846 5046 6803 5947 2644 3706 8860 9007 6693 13393 5715 3303 13520 10214 3736 3370
internal_count=114800 70395 44405 39386 26719 17686 31009 22149 17873 11739 7659 15810 23576 10056 8846 5046 6803 5947 2644 3706 8860 9007 6693 13393 5715 3303 13520 10214 3736 3370
is_linear=0
shrinkage=0.05


Tree=3
num_leaves=31
num_cat=0
split_feature=7 1 7 7 8 8 8 8 7 1 2 2 2 2 2 2 2 7 2 2 2 2 1 2 8 7 7 2 7 7
split_gain=2.30913e+06 442011 373991 334776 194780 115773 108238 70172.2 69807.1 58409.3 55361.4 49779.4 47940.3 46295.1 44156.9 37102.4 32957 32213 31521.6 33092.1 28047.3 27783.4 23727.7 21473.5 21292.1 17918.9 17224.7 15087.3 14573 14025.8
threshold=29.214285714285719 1.0000000180025095e-35 23.357142857142858 34.928571428571438 -0.023092231662585391 0.0034481830589675471 0.012971924592523056 -0.021489303411017232 35.928571428571438 1.0000000180025095e-35 3.5000000000000004 3.5000000000000004 5.5000000000000009 5.5000000000000009 3.5000000000000004 5.5000000000000009 3.5000000000000004 19.642857142857149 3.5000000000000004 5.5000000000000009 5.5000000000000009 3.5000000000000004 1.0000000180025095e-35 5.5000000000000009 0.016626723078144948 19.500000000000004 38.214285714285722 3.5000000000000004 25.928571428571434 38.642857142857146
decision_type=2 2 2 2 2 2 2 2 2 2 2 2 2 2 2 2 2 2 2 2 2 2 2 2 2 2 2 2 2 2
left_child=2 3 7 5 9 14 10 22 -3 21 26 24 28 29 -2 -16 -8 -9 -7 -20 -18 -4 25 -23 -6 -1 -5 -19 -13 -12
right_child=1 8 4 6 11 18 16 17 -10 -11 13 12 -14 -15 15 -17 20 27 19 -21 -22 23 -24 -25 -26 -27 -28 -29 -30 -31
leaf_value=-0.39401525253063591 0.12053413962243407 0.55706656620994355 -0.070102163126910061 0.29722733946140351 -0.17198018595373391 -0.072742283764025403 0.15058256509840828 -0.51308212177537038 0.94829320598876043 0.26137601965219343 0.63590694356377597 -0.10595827197671502 -0.24126629626646376 0.38214630351713158 0.39961548954282405 0.12638693836536516 0.45157165278695655 -0.41136273545114244 0.16625374489701628 -0.088076392933538458 0.15170077458663012 0.17516603907257891 -0.03783107776945327 -0.063509008086184052 -0.28875710076725952 -0.2137405714786077 0.4688179905005142 -0.29643104002378184 0.031965368703266529 0.85729091207887143
leaf_weight=1952 7301 2801 5685 3101 7179 7876 4774 5058 1923 2786 1761 3372 3957 1463 3687 1874 2354 6645 3827 1921 1166 2922 1365 1391 8555 4691 2768 5007 4433 1205
leaf_count=1952 7301 2801 5685 3101 7179 7876 4774 5058 1923 2786 1761 3372 3957 1463 3687 1874 2354 6645 3827 1921 1166 2922 1365 1391 8555 4691 2768 5007 4433 1205
internal_value=-1.2147e-09 0.256183 -0.196289 0.207962 -0.102336 0.0938002 0.370595 -0.349394 0.716323 0.058914 0.478864 -0.177307 -0.0994966 0.612316 0.201388 0.30754 0.236166 -0.407714 -0.0077701 0.0812558 0.352239 0.00249683 -0.227699 0.0981902 -0.235475 -0.266713 0.378155 -0.361975 -0.0276219 0.725849
internal_weight=114800 49802 64998 45078 40280 26486 18592 24718 4724 12784 10298 27496 11762 4429 12862 5561 8294 16710 13624 5748 3520 9998 8008 4313 15734 6643 5869 11652 7805 2966
internal_count=114800 49802 64998 45078 40280 26486 18592 24718 4724 12784 10298 27496 11762 4429 12862 5561 8294 16710 13624 5748 3520 9998 8008 4313 15734 6643 5869 11652 7805 2966
is_linear=0
shrinkage=0.05


Tree=4
num_leaves=31
num_cat=0
split_feature=7 7 1 7 8 8 8 1 8 7 7 7 2 2 2 2 2 2 2 2 2 2 2 1 2 7 2 2 7 2
split_gain=2.09098e+06 444746 356244 210109 197923 106228 88846.8 81780.1 72726.2 45859.2 40480.1 40469.2 38760.1 38211.5 37410.1 35922.1 35862.8 34070.5 32611.1 32184.2 31932 30898.2 22468.2 21291.1 18587.2 14909.3 13980.8 13711.8 13455.3 12741.9
threshold=30.500000000000004 24.500000000000004 1.0000000180025095e-35 36.500000000000007 -0.0044024908648762065 -0.0024568233847626071 -0.011270328237801495 1.0000000180025095e-35 0.012971924592523056 36.785714285714292 21.357142857142858 20.928571428571434 3.5000000000000004 3.5000000000000004 3.5000000000000004 5.5000000000000009 3.5000000000000004 3.5000000000000004 5.5000000000000009 5.5000000000000009 5.5000000000000009 5.5000000000000009 3.5000000000000004 1.0000000180025095e-35 5.5000000000000009 27.642857142857149 3.5000000000000004 3.5000000000000004 28.071428571428573 5.5000000000000009
decision_type=2 2 2 2 2 2 2 2 2 2 2 2 2 2 2 2 2 2 2 2 2 2 2 2 2 2 2 2 2 2
left_child=1 6 3 5 7 16 11 12 13 -4 -8 -1 25 -5 28 -16 -2 -7 -19 -14 -18 -15 -10 26 -24 -3 -13 -12 -6 -29
right_child=2 4 9 8 14 17 10 -9 22 -11 27 23 19 21 15 -17 20 18 -20 -21 -22 -23 24 -25 -26 -27 -28 29 -30 -31
leaf_value=-0.31335484600867503 0.18433919977660296 -0.10572085253011927 0.58489880743416911 0.39788148399020468 -0.25247370436465016 -0.013527530428473853 -0.45282008312045852 0.30243999870994909 0.1809014864787013 0.9258575797151658 -0.3549508185081871 -0.22744189498561929 0.1848079751987888 0.73477564316334387 -0.0096012022195621806 -0.21696743321530476 0.46392597431273774 0.23006397505801934 -0.021084391455416726 -0.045146300276622142 0.1849640926639366 0.40431296004216144 0.47122926152696359 0.061530737249914071 0.18590045968083654 0.023105474234553159 -0.082695631951821003 -0.1806539513667014 -0.14611613678791355 -0.35702974587650033
leaf_weight=4931 6007 5002 2374 4242 7717 7909 8346 3053 3503 1687 6083 3913 4636 2159 6205 3148 3045 3861 1943 2265 1547 1052 1705 1214 858 4076 2908 3025 4838 1548
leaf_count=4931 6007 5002 2374 4242 7717 7909 8346 3053 3503 1687 6083 3913 4636 2159 6205 3148 3045 3861 1943 2265 1547 1052 1705 1214 858 4076 2908 3025 4838 1548
internal_value=6.97072e-13 -0.161753 0.281512 0.23374 -0.0526286 0.145872 -0.301504 0.0653229 0.391758 0.726538 -0.370359 -0.200595 0.0200185 0.496381 -0.155096 -0.0793958 0.264753 0.0539868 0.145987 0.109334 0.369946 0.626508 0.263212 -0.131395 0.375711 -0.0478781 -0.165732 -0.305774 -0.211489 -0.240359
internal_weight=114800 72908 41892 37831 40940 24312 31968 19032 13519 4061 19002 12966 15979 7453 21908 9353 10599 13713 5804 6901 4592 3211 6066 8035 2563 9078 6821 10656 12555 4573
internal_count=114800 72908 41892 37831 40940 24312 31968 19032 13519 4061 19002 12966 15979 7453 21908 9353 10599 13713 5804 6901 4592 3211 6066 8035 2563 9078 6821 10656 12555 4573
is_linear=0
shrinkage=0.05


Tree=5
num_leaves=31
num_cat=0
split_feature=5 1 1 6 6 5 8 8 3 8 6 6 6 8 8 6 6 6 6 8 6 6 0 0 5 5 3 5 5 0
split_gain=1.07972e+06 407614 266417 230742 204043 115739 76488.1 74206.9 66877.2 63478.5 41680.9 35856.2 30799 29519.4 29160.3 28934.9 28929.7 27396 23200.1 22365.9 21133.4 18715.4 16746.2 21422.9 14979.9 12312.2 12272.4 12149.2 11278.4 10855.4
threshold=28.500000000000004 1.0000000180025095e-35 1.0000000180025095e-35 35.500000000000007 25.500000000000004 38.500000000000007 -0.0053729531207775119 -0.00049919615108240379 25.500000000000004 -0.0034349514208887317 28.500000000000004 24.500000000000004 33.500000000000007 0.0034481830589675471 0.0079302432421339848 34.500000000000007 44.500000000000007 45.500000000000007 24.500000000000004 -0.0034349514208887317 41.500000000000007 24.500000000000004 14.006310009782299 13.040104658265586 17.500000000000004 39.500000000000007 26.500000000000004 21.500000000000004 21.500000000000004 14.006310009782299
decision_type=2 2 2 2 2 2 2 2 2 2 2 2 2 2 2 2 2 2 2 2 2 2 2 2 2 2 2 2 2 2
left_child=2 3 4 5 8 7 17 18 19 12 -3 -4 27 -7 24 28 22 -5 -2 -1 25 -9 23 -8 -10 -12 -20 -6 -11 -23
right_child=1 10 11 6 9 13 16 21 14 15 20 -13 -14 -15 -16 -17 -18 -19 26 -21 -22 29 -24 -25 -26 -27 -28 -29 -30 -31
leaf_value=-0.074258936665829181 -0.018125000799234455 0.41066684115833968 0.076630590652473518 0.34134568303684815 -0.1207933179218586 0.33545023241414701 0.12905032538527653 -0.17466488931404711 -0.35326156312581147 -0.25048727266885085 0.59374587499814602 0.34544169935217167 0.15801901227263263 0.12608505837656928 -0.37207018371227457 -0.0093240844019924739 0.317993198227013 0.56874481454597159 0.17616817605359114 -0.21935295383804224 0.97801714670247053 0.039599695420035504 0.084451113763832047 0.48151200001085748 -0.21914105032007894 0.86679947736007823 0.038332952018035021 0.014073638522589594 -0.14099606926127206 -0.079597142689725675
leaf_weight=4686 3511 1386 2514 5390 2442 3291 1169 4040 2799 3425 1571 2449 3099 3447 9871 3456 2845 1756 5602 6131 725 2657 5317 683 8126 560 2269 5281 7507 6795
leaf_count=4686 3511 1386 2514 5390 2442 3291 1169 4040 2799 3425 1571 2449 3099 3447 9871 3456 2845 1756 5602 6131 725 2657 5317 683 8126 560 2269 5281 7507 6795
internal_value=1.18478e-11 0.165541 -0.142038 0.124652 -0.172722 0.044525 0.272262 -0.00526886 -0.257333 -0.0666225 0.63565 0.209276 0.0248611 0.228344 -0.309782 -0.135432 0.183089 0.397225 0.0887572 -0.156497 0.744834 -0.0845903 0.129552 0.259035 -0.253503 0.665501 0.136434 -0.0285711 -0.1753 -0.0460904
internal_weight=114800 53014 61786 48772 56823 31612 17160 24874 31613 25210 4242 4963 10822 6738 20796 14388 10014 7146 11382 10817 2856 13492 7169 1852 10925 2131 7871 7723 10932 9452
internal_count=114800 53014 61786 48772 56823 31612 17160 24874 31613 25210 4242 4963 10822 6738 20796 14388 10014 7146 11382 10817 2856 13492 7169 1852 10925 2131 7871 7723 10932 9452
is_linear=0
shrinkage=0.05


Tree=6
num_leaves=31
num_cat=0
split_feature=7 7 7 1 1 1 2 2 2 2 2 2 1 7 7 7 0 7 0 0 0 2 7 2 0 2 2 0 0 2
split_gain=1.76955e+06 380797 247937 184492 140270 118632 70523.9 65618.3 60745.9 56412 55604.4 55523 34336.1 26716.9 26511.1 24391.2 23245.2 22245.3 20204.5 18808.7 18778.7 18677.1 16896.7 16478.1 16440.6 14973.1 14205.1 14087.8 13168.4 12991.3
threshold=28.642857142857149 34.642857142857146 22.500000000000004 1.0000000180025095e-35 1.0000000180025095e-35 1.0000000180025095e-35 3.5000000000000004 3.5000000000000004 5.5000000000000009 3.5000000000000004 5.5000000000000009 5.5000000000000009 1.0000000180025095e-35 39.785714285714292 18.928571428571434 26.071428571428573 14.006310009782299 39.642857142857146 14.625150629157984 12.923048604908333 14.006310009782299 3.5000000000000004 25.785714285714288 5.5000000000000009 13.992581263627988 3.5000000000000004 5.5000000000000009 14.565890622629949 14.540672407142745 3.5000000000000004
decision_type=2 2 2 2 2 2 2 2 2 2 2 2 2 2 2 2 2 2 2 2 2 2 2 2 2 2 2 2 2 2
left_child=2 4 12 6 7 9 13 16 17 15 22 20 14 24 -1 -4 19 -8 -18 -2 -9 -16 -11 -23 -3 -5 -27 -22 -26 -6
right_child=1 3 5 25 29 -7 8 11 -10 10 -12 -13 -14 -15 21 -17 18 -19 -20 -21 27 23 -24 -25 28 26 -28 -29 -30 -31
leaf_value=-0.44181056545244934 -0.0069273775142580851 0.29369364989033925 -0.23646456853103387 0.6767693070643539 0.34703451668306651 0.18950791987903845 0.46210869303755769 0.33121544380526069 0.23839241725185678 -0.063062614065865316 -0.19730156526153464 0.0044760384996183457 -0.063641489748603494 0.36281659455384513 -0.35985985740682291 -0.13019083172713705 -0.16975708825790992 0.68362257354872158 -0.0052414934514996188 0.17207358585762722 0.018538528744612742 -0.18302711127802418 0.060828343277218602 -0.36330714645013773 -0.015481824099628561 1.064104133460954 0.67356326816439971 0.21616735857680125 0.17940379332035916 0.56751501340444477
leaf_weight=5165 2971 2605 12383 1308 1554 2987 4016 2911 2772 5672 5526 4133 1147 3099 7658 9573 2410 1579 8272 2900 1153 3943 5346 1868 1078 684 353 4138 4424 1172
leaf_count=5165 2971 2605 12383 1308 1554 2987 4016 2911 2772 5672 5526 4133 1147 3099 7658 9573 2410 1579 8272 2900 1153 3943 5346 1868 1078 684 353 4138 4424 1172
internal_value=-2.77697e-10 0.21001 -0.183493 0.370169 0.0989727 -0.11404 0.319957 0.0666195 0.429795 -0.137591 -0.067867 0.153915 -0.329159 0.237947 -0.345502 -0.190128 0.00156829 0.524624 -0.0423584 0.0814907 0.229218 -0.308571 -0.00294997 -0.24098 0.190214 0.789266 0.931162 0.173101 0.14122 0.441827
internal_weight=114800 53532 61268 21918 31614 41487 19573 28888 8367 38500 16544 12335 19781 11206 18634 21956 16553 5595 10682 5871 8202 13469 11018 5811 8107 2345 1037 5291 5502 2726
internal_count=114800 53532 61268 21918 31614 41487 19573 28888 8367 38500 16544 12335 19781 11206 18634 21956 16553 5595 10682 5871 8202 13469 11018 5811 8107 2345 1037 5291 5502 2726
is_linear=0
shrinkage=0.05


Tree=7
num_leaves=31
num_cat=0
split_feature=7 7 8 8 7 8 7 2 7 7 2 2 2 2 2 2 2 2 2 2 2 8 4 2 2 8 8 2 2 8
split_gain=1.60846e+06 351141 261850 148018 129266 84359.6 83428.8 40252.1 39896.4 39640.8 39379.4 32744.9 30590 29817.9 28575.9 27020.2 26838 23882.2 23344.3 20324.1 18813.7 16534 22491.6 15670.9 14759.3 13701.9 13221.6 12687.7 13184.6 12526.5
threshold=30.642857142857149 25.214285714285719 -0.022520306499292816 -0.012768546307671545 37.785714285714292 -0.011270328237801495 36.928571428571438 3.5000000000000004 21.357142857142858 21.357142857142858 5.5000000000000009 3.5000000000000004 3.5000000000000004 3.5000000000000004 5.5000000000000009 3.5000000000000004 5.5000000000000009 3.5000000000000004 5.5000000000000009 5.5000000000000009 5.5000000000000009 0.01555168027902243 32.500000000000007 3.5000000000000004 5.5000000000000009 -0.055839354823325853 0.0187834562067325 3.5000000000000004 5.5000000000000009 0.0187834562067325
decision_type=2 2 2 2 2 2 2 2 2 2 2 2 2 2 2 2 2 2 2 2 2 2 2 2 2 2 2 2 2 2
left_child=1 5 6 11 7 9 13 21 -7 -1 26 25 -5 -2 -14 29 -13 -8 -15 -17 -19 22 -4 -11 -25 -3 -9 -10 -29 -6
right_child=2 3 4 12 15 8 17 10 27 23 -12 16 14 18 -16 19 -18 20 -20 -21 -22 -23 -24 24 -26 -27 -28 28 -30 -31
leaf_value=-0.26074634406612524 0.26122266605101435 0.11452976165377932 0.02024103339636818 -0.16269227126504704 0.35061754190934163 -0.39730123100556958 0.50226106291508887 0.33606578781779672 -0.30034206477653141 -0.14927114678453374 0.028209357701127365 0.25053455412020836 0.018003880864446934 0.5335631908227757 -0.16642067047022813 0.53971926276041937 0.031533266170505905 0.83725761628052953 0.27146377688747503 0.27201528181746737 0.51486477731830538 -0.017212971881122963 0.23834386761356222 0.050178749942405045 -0.15618564549040936 -0.01947273416364043 0.1832548136032888 -0.14897178825779392 -0.30782666233493949 0.17999632382143604
leaf_weight=5706 5013 2939 3091 12746 1986 8346 2577 2662 7745 5289 2893 4239 6260 2558 3161 2117 2088 1373 1272 1066 675 6511 1914 2643 1289 5436 3023 3861 1974 2347
leaf_count=5706 5013 2939 3091 12746 1986 8346 2577 2662 7745 5289 2893 4239 6260 2558 3161 2117 2088 1373 1272 1066 675 6511 1914 2643 1289 5436 3023 3861 1974 2347
internal_value=1.65994e-10 -0.139704 0.250725 -0.0306062 0.162557 -0.24885 0.431473 0.0963908 -0.311268 -0.157166 0.178386 0.0924096 -0.112195 0.341475 -0.0438755 0.339453 0.178261 0.603549 0.446516 0.450064 0.731 0.0353145 0.103647 -0.0930697 -0.0174722 0.0275521 0.254809 -0.258393 -0.202713 0.258199
internal_weight=114800 73722 41078 36869 27610 36853 13468 20094 21926 14927 8578 14702 22167 8843 9421 7516 6327 4625 3830 3183 2048 11516 5005 9221 3932 8375 5685 13580 5835 4333
internal_count=114800 73722 41078 36869 27610 36853 13468 20094 21926 14927 8578 14702 22167 8843 9421 7516 6327 4625 3830 3183 2048 11516 5005 9221 3932 8375 5685 13580 5835 4333
is_linear=0
shrinkage=0.05


Tree=8
num_leaves=31
num_cat=0
split_feature=5 1 1 5 4 8 8 4 8 8 8 4 4 4 4 5 5 4 8 8 4 4 4 4 4 8 4 8 4 8
split_gain=802495 318826 204044 162680 151507 120779 102688 89985.9 120909 58865.9 55556.2 52657.4 41329.8 40859.1 34214.4 29798.8 24044.4 23501.6 25169.9 22271.1 21362.7 20328.5 15630.8 15489.6 15422.8 14492.3 12071.1 11837.3 10860.4 10838.8
threshold=28.500000000000004 1.0000000180025095e-35 1.0000000180025095e-35 38.500000000000007 25.500000000000004 0.012971924592523056 -0.0077486548586619955 36.500000000000007 -0.0077486548586619955 0.020944758575327075 -0.0053729531207775119 25.500000000000004 34.500000000000007 20.500000000000004 38.500000000000007 39.500000000000007 20.500000000000004 28.500000000000004 0.02320544258384483 0.018218519170189466 33.500000000000007 30.500000000000004 36.500000000000007 19.500000000000004 46.500000000000007 0.029730257842778166 22.500000000000004 -0.030652875101794926 16.500000000000004 -0.028200386696115628
decision_type=2 2 2 2 2 2 2 2 2 2 2 2 2 2 2 2 2 2 2 2 2 2 2 2 2 2 2 2 2 2
left_child=2 3 4 7 6 20 13 8 11 -9 21 -2 -7 28 -12 22 -4 -10 -19 -16 29 -5 -3 -8 -11 -25 -18 -13 -1 -6
right_child=1 15 16 10 5 12 23 9 17 24 14 27 -14 -15 19 -17 26 18 -20 -21 -22 -23 -24 25 -26 -27 -28 -29 -30 -31
leaf_value=-0.28076374442412994 0.011426848276969383 0.41720055965984637 0.02237739252222844 0.26452998776970554 0.12144852443464529 -0.20235776225799817 -0.39506864393508856 0.36697295017622755 -0.17197809154157684 0.041178672390378222 0.054799043271268416 0.28463183696996741 -0.024672275827428911 -0.046162873549420141 0.45392865220318046 0.78651088634236299 0.11994041701114165 0.067221956789024831 -0.11516304843268713 0.19472646355502035 0.21003220892370733 0.44714602558336802 0.67321851354036211 -0.23333850219904098 0.25530046429785619 -0.35410110024197816 0.32301141805723355 0.14620322997932597 -0.16681439471550233 -0.0036964227467354508
leaf_weight=3188 6003 2375 1559 2882 2508 10724 4611 3037 6116 3889 3910 3268 4710 7030 1086 1071 1065 3181 4667 3498 2226 3234 796 5854 1073 4316 2339 2928 6077 5579
leaf_count=3188 6003 2375 1559 2882 2508 10724 4611 3037 6116 3889 3910 3268 4710 7030 1086 1071 1065 3181 4667 3498 2226 3234 796 5854 1073 4316 2339 2928 6077 5579
internal_value=-4.14198e-10 0.142715 -0.122453 0.106553 -0.149307 -0.0596104 -0.223621 0.0468352 0.00196477 0.193596 0.24619 0.116965 -0.148133 -0.137056 0.163455 0.558483 0.184998 -0.0984998 -0.0412376 0.256134 0.0728694 0.361093 0.481467 -0.319053 0.0874811 -0.284588 0.259477 0.219216 -0.206023 0.0351144
internal_weight=114800 53014 61786 48772 56823 25747 31076 34162 26163 7999 14610 12199 15434 16295 8494 4242 4963 13964 7848 4584 10313 6116 3171 14781 4962 10170 3404 6196 9265 8087
internal_count=114800 53014 61786 48772 56823 25747 31076 34162 26163 7999 14610 12199 15434 16295 8494 4242 4963 13964 7848 4584 10313 6116 3171 14781 4962 10170 3404 6196 9265 8087
is_linear=0
shrinkage=0.05


Tree=9
num_leaves=31
num_cat=0
split_feature=7 7 7 1 8 8 8 1 2 8 2 2 2 7 8 4 1 2 2 2 7 2 2 0 0 7 2 4 2 2
split_gain=1.34671e+06 321852 167096 154470 131179 106743 77065.1 34714.9 33699 31241.5 30786.2 30867.7 30495.8 27755.2 26804.8 27834 22234.3 18297.7 16655.1 17523.1 15882.5 14967.5 13748 13639 15857.7 13175.4 12671.5 12510.6 11425.3 12254.6
threshold=28.214285714285719 34.214285714285722 22.357142857142858 1.0000000180025095e-35 -0.020464349835345393 -0.027037974562929442 0.0068543662389373159 1.0000000180025095e-35 3.5000000000000004 -0.034369081760297286 3.5000000000000004 5.5000000000000009 5.5000000000000009 40.214285714285722 0.0187834562067325 25.500000000000004 1.0000000180025095e-35 3.5000000000000004 3.5000000000000004 5.5000000000000009 18.785714285714288 5.5000000000000009 3.5000000000000004 14.006310009782299 13.040104658265586 39.357142857142868 5.5000000000000009 38.500000000000007 3.5000000000000004 5.5000000000000009
decision_type=2 2 2 2 2 2 2 2 2 2 2 2 2 2 2 2 2 2 2 2 2 2 2 2 2 2 2 2 2 2
left_child=2 4 9 6 7 16 8 17 27 -1 23 -12 -10 18 15 -7 22 -2 -8 -20 -11 -19 -4 24 -6 -5 -24 -3 -16 -30
right_child=1 3 5 25 10 14 13 -9 12 20 11 -13 -14 -15 28 -17 -18 21 19 -21 -22 -23 26 -25 -26 -27 -28 -29 29 -31
leaf_value=-0.17352440844743783 0.099841427493171084 0.25273888512806314 -0.072724000205485959 0.59566435167582632 -0.056786081988647943 -0.17119007973634315 0.067620511699583483 0.37373839208181492 0.55838868406389552 -0.4118433989884534 0.13549962707783425 -0.058738513842709644 0.2845451018900908 0.32281395445128563 -0.25046690249947989 -0.028326437783727867 0.14963707585752595 0.31634844012034824 0.29296290129531433 0.051433521590796387 -0.29395720787928442 0.10520397297751416 0.11669487529996643 -0.08604047397729761 0.14782720384970979 0.83149120195356818 -0.079746244486751869 0.43320631628210227 -0.10781691671742857 -0.25992161883092696
leaf_weight=4406 4883 4907 4944 1562 2322 8442 4629 2548 3062 3898 6089 3080 1522 2410 7947 5719 2564 2530 2279 1120 10700 1256 2571 8515 1599 954 1206 1194 3950 1992
leaf_count=4406 4883 4907 4944 1562 2322 8442 4629 2548 3062 3898 6089 3080 1522 2410 7947 5719 2564 2530 2279 1120 10700 1256 2571 8515 1599 954 1206 1194 3950 1992
internal_value=1.0459e-11 0.174077 -0.168473 0.314744 0.0727663 -0.109656 0.270632 0.211492 0.365026 -0.290216 0.000741791 0.0702522 0.467466 0.174005 -0.1619 -0.113494 0.0202012 0.163805 0.129333 0.213377 -0.325436 0.246302 -0.0178533 -0.0505079 0.0266561 0.685084 0.053971 0.288057 -0.211254 -0.158809
internal_weight=114800 56461 58339 23639 32822 39335 21123 11217 10685 19004 21605 9169 4584 10438 28050 14161 11285 8669 8028 3399 14598 3786 8721 12436 3921 2516 3777 6101 13889 5942
internal_count=114800 56461 58339 23639 32822 39335 21123 11217 10685 19004 21605 9169 4584 10438 28050 14161 11285 8669 8028 3399 14598 3786 8721 12436 3921 2516 3777 6101 13889 5942
is_linear=0
shrinkage=0.05


Tree=10
num_leaves=31
num_cat=0
split_feature=7 7 1 8 7 8 8 7 8 8 4 1 7 2 2 2 0 0 7 2 2 2 2 2 2 2 2 2 2 2
split_gain=1.22466e+06 282330 199951 117258 115173 71794.3 64142.5 39915.1 37440.8 31594.2 29459.8 25455.9 25118.1 24214 22082.8 21019.1 19456.5 21811.8 19085.3 18006.1 14028.2 15819.5 13281.9 13316.6 13227.8 11792.1 14636.6 11030.1 10992.2 10486.4
threshold=30.928571428571434 25.214285714285719 1.0000000180025095e-35 -0.028200386696115628 37.642857142857146 1.0000000180025095e-35 -0.031866975493658183 21.357142857142858 0.020407427794721381 0.016626723078144948 27.500000000000004 1.0000000180025095e-35 38.928571428571438 3.5000000000000004 3.5000000000000004 5.5000000000000009 14.006310009782299 13.040104658265586 20.214285714285719 5.5000000000000009 3.5000000000000004 5.5000000000000009 3.5000000000000004 5.5000000000000009 3.5000000000000004 3.5000000000000004 5.5000000000000009 3.5000000000000004 5.5000000000000009 5.5000000000000009
decision_type=2 2 2 2 2 2 2 2 2 2 2 2 2 2 2 2 2 2 2 2 2 2 2 2 2 2 2 2 2 2
left_child=1 6 4 11 5 13 18 -8 14 10 -5 24 27 -2 -6 -15 17 -7 -1 -16 -9 -22 -11 -24 -3 -18 -27 -4 -26 -29
right_child=2 3 12 9 8 16 7 20 -10 22 -12 -13 -14 15 19 -17 25 -19 -20 -21 21 -23 23 -25 28 26 -28 29 -30 -31
leaf_value=-0.22715590912107655 0.15993332548198602 0.013920700110558999 0.40223106563077898 -0.089999391822705929 0.32479394791614291 0.053003448381759015 -0.33126561761946527 -0.246974443082211 0.21079396769849304 -0.1723039314893586 0.060241012767071715 0.24405178910368033 0.77666898624912917 0.37764040086336448 0.60604128380713063 0.16016630229326567 -0.027859305096695975 0.30036341093921215 -0.060849085003160025 0.33147203423186888 -0.10335333416746727 -0.25949781492139379 -0.020931436222897976 -0.17843284616930402 0.20129197351471581 0.14779761220886278 -0.048809335647715155 0.70950844055287066 0.01493721622865944 0.40267727739725995
leaf_weight=2303 6559 4656 1574 7362 3558 2222 10610 9762 4013 8179 5860 2801 1049 3364 1794 1659 5832 1488 6875 895 4871 2432 3960 2030 2458 2816 1426 797 1167 428
leaf_count=2303 6559 4656 1574 7362 3558 2222 10610 9762 4013 8179 5860 2801 1049 3364 1794 1659 5832 1488 6875 895 4871 2432 3960 2030 2458 2816 1426 797 1167 428
internal_value=-1.58361e-10 -0.11822 0.225592 -0.0234797 0.188609 0.131433 -0.217125 -0.255112 0.329965 -0.079002 -0.0234127 0.113753 0.567999 0.2232 0.406519 0.305813 0.0543264 0.152214 -0.10258 0.514654 -0.207764 -0.155352 -0.130876 -0.0743084 0.0696803 0.0182768 0.0817058 0.489795 0.141299 0.602305
internal_weight=114800 75326 39474 38473 35626 25366 36853 27675 10260 27391 13222 11082 3848 11582 6247 5023 13784 3710 9178 2689 17065 7303 14169 5990 8281 10074 4242 2799 3625 1225
internal_count=114800 75326 39474 38473 35626 25366 36853 27675 10260 27391 13222 11082 3848 11582 6247 5023 13784 3710 9178 2689 17065 7303 14169 5990 8281 10074 4242 2799 3625 1225
is_linear=0
shrinkage=0.05


Tree=11
num_leaves=31
num_cat=0
split_feature=5 1 5 1 4 8 4 8 8 8 8 4 4 4 5 4 8 4 8 4 4 3 4 4 8 8 8 8 2 8
split_gain=600518 255930 138111 135811 97801.8 95386.9 77299.3 96899.5 57919.1 48307.9 46625.2 44559 33506.8 32726.7 26631.8 20090.1 21612.5 19646.5 19238.1 18990.8 18452.4 15174.5 12564.3 11771 11211.1 9359.5 9295.27 9210.03 8875.19 8737.87
threshold=27.500000000000004 1.0000000180025095e-35 37.500000000000007 1.0000000180025095e-35 23.500000000000004 0.011974830255972903 36.500000000000007 -0.0072900558687193908 -0.0082079909147294555 -0.0053729531207775119 0.020944758575327075 25.500000000000004 33.500000000000007 38.500000000000007 37.500000000000007 27.500000000000004 0.026182952964285747 30.500000000000004 0.025559737657538276 17.500000000000004 31.500000000000004 25.500000000000004 30.500000000000004 46.500000000000007 -0.033704560861163517 -0.031866975493658183 -0.030652875101794926 0.037190059533351423 5.5000000000000009 -0.021979242560446085
decision_type=2 2 2 2 2 2 2 2 2 2 2 2 2 2 2 2 2 2 2 2 2 2 2 2 2 2 2 2 2 2
left_child=3 2 6 4 8 20 7 11 19 17 28 25 27 -11 22 -9 -17 29 -15 -1 24 -5 -3 -12 -6 -2 -13 -7 -8 -4
right_child=1 14 9 21 5 12 10 15 -10 13 23 26 -14 18 -16 16 -18 -19 -20 -21 -22 -23 -24 -25 -26 -27 -28 -29 -30 -31
leaf_value=-0.22869458276955967 0.049459570227922911 0.29773390197201971 0.26306065454082711 0.25195760402651951 0.08497942465938392 -0.14566687036808376 0.37332840241280207 -0.16819123564341387 -0.30070354421954154 0.034214723967134049 0.031486645843726312 0.23865138762544263 -0.042967411989197832 0.36137723205369099 0.64707928599808029 0.035067278026233842 -0.11826150813887629 0.38322201400738432 0.15119527652915268 -0.10012611824312379 0.14454964854661095 0.066932794196152057 0.49473916255920242 0.21970306968501727 -0.037572471464025939 -0.068155095259754314 0.11895010352922251 -0.23656301636045357 0.18658310938340641 0.082484890038647563
leaf_weight=4318 3912 1766 2563 1947 2594 4612 2148 6011 10657 4743 4006 3374 4744 1585 1426 4095 5238 3545 3477 8578 2740 2572 1494 1048 6651 2980 3123 7042 904 907
leaf_count=4318 3912 1766 2563 1947 2594 4612 2148 6011 10657 4743 4006 3374 4744 1585 1426 4095 5238 3545 3477 8578 2740 2572 1494 1048 6651 2980 3123 7042 904 907
internal_value=2.17437e-11 0.112489 0.081543 -0.116255 -0.139131 -0.0766276 0.0273403 -0.0111292 -0.214452 0.200257 0.163702 0.0871667 -0.15499 0.128584 0.466853 -0.0969011 -0.0509861 0.300436 0.217007 -0.143175 0.0305889 0.14665 0.388018 0.0705153 -0.00318636 -0.00139529 0.181113 -0.200591 0.318015 0.215861
internal_weight=114800 58345 53659 56455 51936 28383 36839 28733 23553 16820 8106 13389 16398 9805 4686 15344 9333 7015 5062 12896 11985 4519 3260 5054 9245 6892 6497 11654 3052 3470
internal_count=114800 58345 53659 56455 51936 28383 36839 28733 23553 16820 8106 13389 16398 9805 4686 15344 9333 7015 5062 12896 11985 4519 3260 5054 9245 6892 6497 11654 3052 3470
is_linear=0
shrinkage=0.05


Tree=12
num_leaves=31
num_cat=0
split_feature=7 7 8 8 7 8 7 7 2 2 0 2 0 2 2 2 7 0 2 0 0 2 8 8 8 0 2 2 2 2
split_gain=1.02719e+06 261957 157923 102484 59531.5 56271 52998.3 37822.5 29880.9 28894.7 25419 24646.3 23309.8 19715.3 17132.6 19205.7 16779.3 16345.8 16238.9 15824.4 15097.3 14942.8 13520.4 12775.8 12770.5 11037.6 10438.1 11281.2 9994.1 11488.6
threshold=31.500000000000004 25.500000000000004 -0.013795893524803869 1.0000000180025095e-35 38.928571428571438 -0.034369081760297286 38.214285714285722 21.500000000000004 3.5000000000000004 5.5000000000000009 14.006310009782299 3.5000000000000004 12.923048604908333 5.5000000000000009 3.5000000000000004 5.5000000000000009 19.785714285714288 14.726477672831665 3.5000000000000004 17.013569467450271 14.006310009782299 5.5000000000000009 0.0187834562067325 -0.071663173467518035 -0.05007693417622177 12.022110421324696 3.5000000000000004 5.5000000000000009 3.5000000000000004 5.5000000000000009
decision_type=2 2 2 2 2 2 2 2 2 2 2 2 2 2 2 2 2 2 2 2 2 2 2 2 2 2 2 2 2 2
left_child=1 5 6 8 10 16 11 26 24 23 12 -2 25 -13 -5 -16 -1 -12 -8 -19 -6 -20 -9 -10 -3 -4 -7 -28 -18 -30
right_child=2 3 4 14 20 7 18 22 9 -11 17 13 -14 -15 15 -17 28 19 21 -21 -22 -23 -24 -25 -26 -27 27 -29 29 -31
leaf_value=-0.22099812616921635 0.22142158987061064 0.09148246649737149 0.16136528061353284 -0.13201246108123049 0.42157214084617584 -0.34095411696636913 0.41469623122876742 -0.14370644379365205 0.35944677501106292 0.0088955254969864828 -0.042475904045743085 0.45009196712035893 0.31114920445197969 0.22758869619767508 0.015903478424050994 -0.14396151930433096 -0.10245606450720079 0.14767263852358453 0.72294864674160986 0.013719880586285212 0.23105114680331243 0.41356690320138967 -0.22944788807958957 0.16845835319060062 -0.021691356245774646 -0.052837046053999803 -0.19076946887394305 -0.35291299700511169 0.081570046434292318 -0.12216938023304319
leaf_weight=1820 5848 3728 1825 11298 1486 6438 2239 10004 1080 2817 3289 3029 2146 1483 5593 2829 4136 4943 1153 3980 3463 590 8508 4627 7522 897 3272 1596 2138 1023
leaf_count=1820 5848 3728 1825 11298 1486 6438 2239 10004 1080 2817 3289 3029 2146 1483 5593 2829 4136 4943 1153 3980 3463 590 8508 4627 7522 897 3272 1596 2138 1023
internal_value=-1.00695e-12 -0.101851 0.219627 -0.0111205 0.13556 -0.193883 0.348751 -0.227121 0.0693134 0.139925 0.0913156 0.289162 0.187926 0.37696 -0.0917746 -0.0377961 -0.0851769 0.0528044 0.503784 0.0879246 0.288257 0.618224 -0.183113 0.204601 0.0158119 0.0907777 -0.299178 -0.243929 -0.0513006 0.0156335
internal_weight=114800 78429 36371 39494 22029 38935 14342 29818 19774 8524 17080 10360 4868 4512 19720 8422 9117 12212 3982 8923 4949 1743 18512 5707 11250 2722 11306 4868 7297 3161
internal_count=114800 78429 36371 39494 22029 38935 14342 29818 19774 8524 17080 10360 4868 4512 19720 8422 9117 12212 3982 8923 4949 1743 18512 5707 11250 2722 11306 4868 7297 3161
is_linear=0
shrinkage=0.05


Tree=13
num_leaves=31
num_cat=0
split_feature=7 7 7 2 2 0 0 0 0 0 7 7 0 2 0 0 2 0 0 2 2 2 0 2 0 0 0 2 2 0
split_gain=933921 225862 115418 56049 50283.7 44481.5 33656.5 28317.9 26189.4 24324.3 24120.6 21706.9 20606.8 20534.9 19141.4 22185.2 18778.5 16687.3 16196 15586.4 15135.3 15761.8 13117.2 12581.7 11296.4 25014.4 10550.6 10476 12411.7 9578.48
threshold=28.214285714285719 34.357142857142868 22.785714285714288 3.5000000000000004 5.5000000000000009 13.992581263627988 14.006310009782299 14.565890622629949 16.989424982858974 13.992581263627988 40.500000000000007 18.928571428571434 12.805924930044531 3.5000000000000004 14.490782619561916 16.989424982858974 5.5000000000000009 14.516067906418712 16.989424982858974 3.5000000000000004 3.5000000000000004 5.5000000000000009 14.006310009782299 5.5000000000000009 17.798269645942732 18.983422377220048 11.986052891326006 3.5000000000000004 5.5000000000000009 12.55336925701052
decision_type=2 2 2 2 2 2 2 2 2 2 2 2 2 2 2 2 2 2 2 2 2 2 2 2 2 2 2 2 2 2
left_child=2 5 11 9 10 13 12 -7 19 -3 22 -1 26 29 -8 27 -15 -11 -19 -9 -13 -22 -5 -21 -10 -26 -4 -16 -29 -2
right_child=1 3 6 4 -6 7 14 8 24 17 -12 20 -14 16 15 -17 -18 18 -20 23 21 -23 -24 -25 25 -27 -28 28 -30 -31
leaf_value=-0.31926150634550637 0.024533795014707472 0.29061978668468164 -0.037522345670534016 0.49428788326805456 0.19574212784890324 -0.092421801573252818 -0.21847080657695006 0.044085294160058935 -0.10609933607603549 -0.0021642471839923498 0.62145522687280275 -0.24575974393426178 0.053864875170506657 0.27871382138484385 -0.10040758407946937 -0.17140390245064149 0.079192607847188179 0.2365612198487663 0.077878149781729772 0.2293738381356151 -0.095004433791402693 -0.25643363685160142 0.32787525079274144 0.049473567928776802 0.14947489102171641 -0.12066498101655297 -0.16142082157481946 0.049709881189344426 -0.11671500487304082 0.14043522147223675
leaf_weight=5412 3618 4602 6068 1821 3284 4573 4309 5783 2826 1520 1376 9093 5199 3510 6779 7131 1776 4553 2486 2907 4649 2241 3386 1460 1915 1551 2397 3387 1674 3514
leaf_count=5412 3618 4602 6068 1821 3284 4573 4309 5783 2826 1520 1376 9093 5199 3510 6779 7131 1776 4553 2486 2907 4649 2241 3386 1460 1915 1551 2397 3387 1674 3514
internal_value=4.66393e-11 0.144964 -0.140297 0.265461 0.355551 0.0619676 -0.0867777 0.017634 0.0482437 0.197919 0.435274 -0.232712 -0.0244853 0.136993 -0.12334 -0.101732 0.211678 0.148076 0.180518 0.0979277 -0.203406 -0.14751 0.386073 0.169229 -0.0319046 0.02859 -0.0726062 -0.05977 -0.00533759 0.0816395
internal_weight=114800 56461 58339 23028 9867 33433 36944 21015 16442 13161 6583 21395 13664 12418 23280 18971 5286 8559 7039 10150 15983 6890 5207 4367 6292 3466 8465 11840 5061 7132
internal_count=114800 56461 58339 23028 9867 33433 36944 21015 16442 13161 6583 21395 13664 12418 23280 18971 5286 8559 7039 10150 15983 6890 5207 4367 6292 3466 8465 11840 5061 7132
is_linear=0
shrinkage=0.05


Tree=14
num_leaves=31
num_cat=0
split_feature=6 8 4 5 8 4 8 8 4 4 8 4 4 4 8 8 4 8 8 4 8 4 2 4 4 2 2 5 6 8
split_gain=478519 175950 125812 122256 68447.9 66581.8 59140.1 49796.2 46501 45341.6 32633.2 38464.5 32361.9 25783.7 24936.3 16748 15337.4 15239.1 14780.3 14064.7 11095.4 10004.7 9509.2 8696.53 8339.15 8306.29 8460.58 8253.27 7458.48 7198.66
threshold=29.500000000000004 -0.029417812974228682 37.500000000000007 25.500000000000004 -0.028818508113202575 27.500000000000004 0.020944758575327075 0.0034481830589675471 21.500000000000004 31.500000000000004 0.01555168027902243 27.500000000000004 26.500000000000004 23.500000000000004 0.011974830255972903 -0.062769834354719153 46.500000000000007 -0.046795728808058483 0.010912449262698966 23.500000000000004 -0.088032174296246865 28.500000000000004 5.5000000000000009 40.500000000000007 42.500000000000007 5.5000000000000009 3.5000000000000004 44.500000000000007 37.500000000000007 -0.044289324249122401
decision_type=2 2 2 2 2 2 2 2 2 2 2 2 2 2 2 2 2 2 2 2 2 2 2 2 2 2 2 2 2 2
left_child=3 5 10 7 13 20 22 8 17 18 11 -3 -9 -5 -11 27 -8 -1 19 -6 -2 29 24 -17 -4 26 -13 -7 -22 -10
right_child=1 2 6 4 9 15 16 12 21 14 -12 25 -14 -15 -16 23 -18 -19 -20 -21 28 -23 -24 -25 -26 -27 -28 -29 -30 -31
leaf_value=-0.083618303090534876 0.28539455418643933 -0.04989245006392648 0.31827327984976539 0.011010136526573074 -0.14463356883793704 0.43169897093234477 0.064624567319767803 -0.27011662435212153 0.038827494146637997 0.17112954132377267 -0.075088756562084996 0.089999563962798665 -0.13139018627440829 0.18472498384169986 -0.021699113810283305 0.28536491526292868 0.22018152911773711 -0.20800268333703126 -0.17094454482765342 -0.0034087047991588244 0.084958533814873949 0.08959456301047268 0.20302418278473799 0.50189970317410271 0.48063411993059502 -0.018181971630181721 0.20673055533128695 0.65336626269041553 0.22903772672280731 -0.074520393932533666
leaf_weight=3880 1285 5854 1934 3893 3190 2517 5341 9793 2106 2317 9949 3392 7366 4733 6066 3566 2253 6740 6472 3941 3673 2095 924 533 1338 911 2862 504 1189 4183
leaf_count=3880 1285 5854 1934 3893 3190 2517 5341 9793 2106 2317 9949 3392 7366 4733 6066 3566 2253 6740 6472 3941 3673 2095 924 533 1338 911 2862 504 1189 4183
internal_value=-1.02656e-11 0.120371 0.0612435 -0.0865716 -0.0130381 0.275278 0.194016 -0.148818 -0.0930659 -0.0598694 -0.00691183 0.0451884 -0.210564 0.106326 0.0315973 0.379355 0.110775 -0.162559 -0.116237 -0.0665846 0.154728 -0.00503906 0.344667 0.313521 0.384667 0.122872 0.143419 0.46868 0.120193 -0.0365635
internal_weight=114800 48025 34758 66775 30612 13267 11790 36163 19004 21986 22968 13019 17159 8626 8383 7120 7594 10620 13603 7131 6147 8384 4196 4099 3272 7165 6254 3021 4862 6289
internal_count=114800 48025 34758 66775 30612 13267 11790 36163 19004 21986 22968 13019 17159 8626 8383 7120 7594 10620 13603 7131 6147 8384 4196 4099 3272 7165 6254 3021 4862 6289
is_linear=0
shrinkage=0.05


Tree=15
num_leaves=31
num_cat=0
split_feature=7 7 1 1 7 7 1 2 2 2 2 2 2 2 2 7 0 0 0 0 0 0 0 0 0 0 0 0 0 2
split_gain=783552 199361 138747 73845.1 64095.7 42185.2 32522.5 30364 34057 29861.6 31875.9 23672.9 18387.8 17197 23848 15696.7 15083.5 15130.7 12913.9 13108 12845.7 11962.4 11589.9 10936.9 10084.8 9994.87 9742.43 9230.05 9134.23 9047.4
threshold=31.500000000000004 25.500000000000004 1.0000000180025095e-35 1.0000000180025095e-35 37.785714285714292 20.357142857142858 1.0000000180025095e-35 3.5000000000000004 5.5000000000000009 3.5000000000000004 5.5000000000000009 3.5000000000000004 5.5000000000000009 3.5000000000000004 5.5000000000000009 39.357142857142868 14.006310009782299 13.040104658265586 13.992581263627988 14.594923653118888 14.625150629157984 14.006310009782299 16.989424982858974 14.006310009782299 13.040104658265586 11.986052891326006 14.565890622629949 12.923048604908333 17.013569467450271 3.5000000000000004
decision_type=2 2 2 2 2 2 2 2 2 2 2 2 2 2 2 2 2 2 2 2 2 2 2 2 2 2 2 2 2 2
left_child=1 5 4 7 9 -1 13 16 21 18 23 -6 -13 -7 -15 -4 17 25 27 -20 -18 24 -22 -11 -9 -3 -25 -2 -21 -5
right_child=2 3 15 29 11 6 -8 8 -10 10 -12 12 -14 14 -16 -17 20 -19 19 28 22 -23 -24 26 -26 -27 -28 -29 -30 -31
leaf_value=-0.25799986909441092 0.059677850542836676 -0.028579445499135749 0.42457143948491816 0.14887576374207248 0.19935043984325543 -0.18732934901237641 0.061636900306706814 0.074979891564483606 -0.081934368641050415 0.33408200446951608 0.052009716039003256 0.42937768653071973 0.20759164012421497 -0.056624235820381168 -0.20882670755473379 0.6615227178332691 -0.19369861271609379 0.070367766981019417 -0.086336225910092226 0.10765939451134868 -0.03171652322805963 0.034924894026168093 -0.13977088009735894 0.049930268717338494 0.24175103863613639 -0.20265507670204866 0.23566786272140897 0.20589815767619185 -0.010221477278755007 0.31890759573298622
leaf_weight=9962 2088 3150 2614 1878 5682 15439 1893 2100 5205 2211 3251 2815 1399 7800 3841 954 2958 3147 1906 4221 6127 6705 4171 890 1595 1117 3415 2234 2691 1341
leaf_count=9962 2088 3150 2614 1878 5682 15439 1893 2100 5205 2211 3251 2815 1399 7800 3841 954 2958 3147 1906 4221 6127 6705 4171 890 1595 1117 3415 2234 2691 1341
internal_value=-2.90666e-11 -0.0889554 0.19182 -0.00980448 0.159612 -0.169243 -0.138725 -0.0301712 0.022477 0.113674 0.17989 0.265949 0.355747 -0.152731 -0.106844 0.487927 -0.0699185 -0.012806 0.064456 0.0297536 -0.101861 0.0747329 -0.0754818 0.243692 0.146969 -0.0741483 0.197269 0.135258 0.0617657 0.219709
internal_weight=114800 78429 36371 39494 32803 38935 28973 36275 15605 22907 9767 9896 4214 27080 11641 3568 20670 7414 13140 8818 13256 10400 10298 6516 3695 4267 4305 4322 6912 3219
internal_count=114800 78429 36371 39494 32803 38935 28973 36275 15605 22907 9767 9896 4214 27080 11641 3568 20670 7414 13140 8818 13256 10400 10298 6516 3695 4267 4305 4322 6912 3219
is_linear=0
shrinkage=0.05


Tree=16
num_leaves=31
num_cat=0
split_feature=7 1 7 7 8 8 8 8 1 7 7 2 2 2 2 2 7 2 0 0 2 2 2 2 2 2 7 2 2 2
split_gain=712399 155612 115507 107450 64421.2 45128.8 42180.7 26777.4 26292.3 26120.3 18142.7 16331.2 15947.9 16653.8 13838.9 17473.2 12345.1 12326.8 12283.9 13550.5 10238.3 10311.9 9610.8 13721.8 9547.1 12000.2 9158.92 8723.32 8989.91 7122.93
threshold=28.928571428571434 1.0000000180025095e-35 35.071428571428577 23.357142857142858 0.0029486369395446137 0.0079302432421339848 -0.0010008390364081852 -0.0019673199117548053 1.0000000180025095e-35 34.928571428571438 41.357142857142868 3.5000000000000004 3.5000000000000004 5.5000000000000009 3.5000000000000004 5.5000000000000009 18.357142857142858 5.5000000000000009 14.006310009782299 13.224586798456185 3.5000000000000004 5.5000000000000009 3.5000000000000004 5.5000000000000009 3.5000000000000004 5.5000000000000009 18.928571428571434 3.5000000000000004 5.5000000000000009 3.5000000000000004
decision_type=2 2 2 2 2 2 2 2 2 2 2 2 2 2 2 2 2 2 2 2 2 2 2 2 2 2 2 2 2 2
left_child=3 2 5 7 8 12 11 16 14 -3 18 -4 -2 -14 -5 -16 -1 -13 19 -8 -18 -22 -7 -24 -6 -26 -9 -11 -29 -10
right_child=1 9 6 4 24 22 10 26 29 27 -12 17 13 -15 15 -17 20 -19 -20 -21 21 -23 23 -25 25 -27 -28 28 -30 -31
leaf_value=-0.25530763651268712 0.061787314677914776 0.2997057573529513 0.232333736843407 -0.059994605586199228 -0.15958604945254817 -0.054530478814470297 0.10582896718415387 -0.32439381355217539 0.076261082724233639 0.44385158109049105 0.2868228932778224 0.44297987831314595 0.22246176051376862 0.05368364951631388 0.084015666720882773 -0.078641271941828156 -0.16177903839294927 0.24098683587472999 0.074432990165401627 0.35856162794406093 -0.0053517443655326236 -0.16983829790745297 0.085550320286677195 -0.078937799231522665 -0.042839954614226544 -0.17412648450960788 -0.22192924423120691 0.75035415725853616 0.43254398617351797 0.23922659017861189
leaf_weight=1949 8534 2645 4524 9940 10448 7897 1256 2791 1589 1251 1761 2311 4335 2205 4984 2469 5691 1122 6204 918 2888 1422 3799 1903 5225 2610 9977 655 337 1160
leaf_count=1949 8534 2645 4524 9940 10448 7897 1256 2791 1589 1251 1761 2311 4335 2205 4984 2469 5691 1122 6204 918 2888 1422 3799 1903 5225 2610 9977 655 337 1160
internal_value=1.68857e-12 0.137708 0.109653 -0.112658 -0.0603451 0.047229 0.208563 -0.193981 0.00133572 0.406143 0.140937 0.294733 0.106809 0.165557 -0.0213751 0.0301313 -0.140188 0.376963 0.110273 0.212549 -0.117753 -0.0596209 -0.0188132 0.0306536 -0.128298 -0.0865742 -0.244327 0.531657 0.642388 0.145028
internal_weight=114800 51657 46769 63143 38425 28673 18096 24718 20142 4888 10139 7957 15074 6540 17393 7453 11950 3433 8378 2174 10001 4310 13599 5702 18283 7835 12768 2243 992 2749
internal_count=114800 51657 46769 63143 38425 28673 18096 24718 20142 4888 10139 7957 15074 6540 17393 7453 11950 3433 8378 2174 10001 4310 13599 5702 18283 7835 12768 2243 992 2749
is_linear=0
shrinkage=0.05


Tree=17
num_leaves=31
num_cat=0
split_feature=7 7 1 7 1 1 2 2 2 2 2 2 1 2 2 7 7 2 2 2 7 2 7 7 2 2 7 7 7 7
split_gain=645803 167837 87386.9 73385.7 58819.6 41304.6 34369.2 33653.1 24500.2 26174.2 19346.9 25990.3 16417.9 13842.5 14270.3 13646.4 12908.2 8679.75 8929.43 7472.05 7225.2 6899.79 6211.8 5667.07 5353.76 5528.85 4851.99 4768.16 3810.54 3759.84
threshold=27.928571428571434 33.928571428571438 1.0000000180025095e-35 22.357142857142858 1.0000000180025095e-35 1.0000000180025095e-35 3.5000000000000004 5.5000000000000009 3.5000000000000004 5.5000000000000009 3.5000000000000004 5.5000000000000009 1.0000000180025095e-35 3.5000000000000004 5.5000000000000009 41.071428571428577 39.642857142857146 3.5000000000000004 5.5000000000000009 3.5000000000000004 18.214285714285719 5.5000000000000009 26.071428571428573 32.071428571428577 3.5000000000000004 5.5000000000000009 40.214285714285722 31.928571428571434 38.500000000000007 26.071428571428573
decision_type=2 2 2 2 2 2 2 2 2 2 2 2 2 2 2 2 2 2 2 2 2 2 2 2 2 2 2 2 2 2
left_child=3 4 6 12 8 10 15 16 23 27 22 29 13 20 -15 -3 -8 -4 28 -6 -1 -21 -5 -2 -7 -26 -9 -10 -19 -12
right_child=1 2 17 5 19 24 7 26 9 -11 11 -13 -14 14 -16 -17 -18 18 -20 21 -22 -23 -24 -25 25 -27 -28 -29 -30 -31
leaf_value=-0.33676285789529553 -0.031842042094038008 0.10766834330953612 0.40718166132802164 -0.14776427387903499 0.19085357304848394 0.050280269597742726 0.2801086711549034 0.090160904338448866 0.10240810855991433 -0.024636289318592249 -0.027907995801309194 -0.14485937102418694 -0.013066327996036665 -0.11464736462685557 -0.2600896103263261 0.25398307971452944 0.44508392971899347 0.59092673975214971 0.40033948950710435 0.43917151401754206 -0.23000145435907463 0.18728524353991194 -0.089015039090279829 0.032900304296531152 0.27581378854481103 0.040043268072889444 0.24330147327197152 0.18518701960835443 0.81682365529635959 0.036239167424437703
leaf_weight=1962 13087 10883 1454 12801 1643 1535 4760 2517 6336 4380 6394 4986 1097 5209 2494 1867 1579 417 402 807 8242 410 6938 4557 723 379 651 2398 338 3554
leaf_count=1962 13087 10883 1454 12801 1643 1535 4760 2517 6336 4380 6394 4986 1097 5209 2494 1867 1579 417 402 807 8242 410 6938 4557 723 379 651 2398 338 3554
internal_value=2.68579e-11 0.116367 0.214848 -0.120856 0.0435186 -0.0801197 0.182746 0.2547 0.0233513 0.0751128 -0.094628 -0.0516887 -0.200831 -0.212334 -0.161737 0.129093 0.321203 0.488503 0.590699 0.260409 -0.250529 0.354313 -0.127115 -0.0151207 0.110645 0.194728 0.12163 0.125136 0.692057 -0.00499093
internal_weight=114800 58486 24868 56314 33618 37310 22257 9507 30758 13114 34673 14934 19004 17907 7703 12750 6339 2611 1157 2860 10204 1217 19739 17644 2637 1102 3168 8734 755 9948
internal_count=114800 58486 24868 56314 33618 37310 22257 9507 30758 13114 34673 14934 19004 17907 7703 12750 6339 2611 1157 2860 10204 1217 19739 17644 2637 1102 3168 8734 755 9948
is_linear=0
shrinkage=0.05


Tree=18
num_leaves=31
num_cat=0
split_feature=7 7 8 8 8 7 7 7 8 7 2 2 2 2 4 2 8 4 2 2 2 2 2 2 2 2 8 8 2 2
split_gain=583146 153752 106769 64101.6 45848.4 34692.1 33215.5 20812.8 18948 17094.1 16472.4 16295.3 19259.9 13717.5 10144.1 10074.3 9223.42 11022.7 8749.9 8370.71 8195.27 9971.03 7588.36 7419.88 7269.74 8697.4 7151.9 6904.97 6696.27 6313.33
threshold=31.642857142857149 26.071428571428573 -0.010223352499748871 0.0029486369395446137 -0.018905360072247909 38.500000000000007 39.642857142857146 20.642857142857149 -0.05007693417622177 21.785714285714288 3.5000000000000004 3.5000000000000004 5.5000000000000009 5.5000000000000009 29.500000000000004 3.5000000000000004 0.023813081616612334 23.500000000000004 5.5000000000000009 3.5000000000000004 3.5000000000000004 5.5000000000000009 3.5000000000000004 5.5000000000000009 3.5000000000000004 5.5000000000000009 -0.051052525034635747 -0.064150178900470631 3.5000000000000004 5.5000000000000009
decision_type=2 2 2 2 2 2 2 2 2 2 2 2 2 2 2 2 2 2 2 2 2 2 2 2 2 2 2 2 2 2
left_child=1 4 5 8 9 10 11 -6 19 -1 26 -4 -13 27 28 -7 17 -9 -17 -3 -5 -22 -8 -21 -11 -26 -2 -12 -10 -24
right_child=2 3 6 20 7 15 22 16 14 24 13 12 -14 -15 -16 18 -18 -19 -20 23 21 -23 29 -25 25 -27 -28 -29 -30 -31
leaf_value=-0.13746286161719121 0.23875906833638771 0.085555278218002823 0.021920888313259515 -0.099304961713136214 -0.24999482889522479 0.32724009101777218 0.16772140598731414 -0.1652931122280884 -0.029308920129646428 -0.064893291056703967 0.47422150140885733 0.17971903031508304 0.0054370038323751733 0.17485029629361584 0.1019695858399321 0.57123022195728845 -0.18630917721062268 -0.064565794144586366 0.33144977606020498 0.26417975219402007 0.011612625204236761 -0.11225576985920774 0.38340279074900963 0.085463630624151243 0.075778039152461257 -0.082867087058541511 0.1292296524107111 0.30912037405724635 0.058526207117084145 0.17385340656178458
leaf_weight=5562 2418 3413 9719 9846 7231 2194 2203 6036 5982 5287 868 4743 2381 1608 3531 1117 10026 4938 577 1739 4898 2431 1041 872 2684 1274 3885 2342 3405 549
leaf_count=5562 2418 3413 9719 9846 7231 2194 2203 6036 5982 5287 868 4743 2381 1608 3531 1117 10026 4938 577 1739 4898 2431 1041 872 2684 1274 3885 2342 3405 549
internal_value=1.46789e-11 -0.075622 0.16793 0.000447757 -0.139459 0.269398 0.0941297 -0.176833 0.0638762 -0.0682004 0.224451 0.0640267 0.12147 0.294052 0.0297268 0.397962 -0.151641 -0.119969 0.489558 0.137107 -0.0695064 -0.029474 0.227803 0.204494 -0.0265306 0.0247134 0.171248 0.353765 0.00255202 0.311049
internal_weight=114800 79155 35645 36117 43038 15009 20636 28231 18942 14807 11121 16843 7124 4818 12918 3888 21000 10974 1694 6024 17175 7329 3793 2611 9245 3958 6303 3210 9387 1590
internal_count=114800 79155 35645 36117 43038 15009 20636 28231 18942 14807 11121 16843 7124 4818 12918 3888 21000 10974 1694 6024 17175 7329 3793 2611 9245 3958 6303 3210 9387 1590
is_linear=0
shrinkage=0.05


Tree=19
num_leaves=31
num_cat=0
split_feature=7 7 8 8 8 7 7 0 0 0 0 7 0 0 0 2 0 0 0 2 0 0 0 0 0 2 2 0 0 7
split_gain=529606 138733 80488.3 60507.5 56668.1 40642.1 22222 22133.1 22287.6 19178.5 19857.1 18815.9 16889.7 23431.3 14692.7 14384.6 13671.9 15711.1 13087.1 12424.1 11177.1 12773.6 10889.1 10611.6 10460.7 9809.28 8811.52 8457.37 23168.3 8253.3
threshold=27.928571428571434 33.500000000000007 -0.0063404927502084809 -0.034369081760297286 -0.028818508113202575 22.071428571428573 40.357142857142868 14.006310009782299 13.040104658265586 14.006310009782299 13.040104658265586 22.357142857142858 14.006310009782299 12.923048604908333 14.726477672831665 3.5000000000000004 14.540672407142745 17.013569467450271 17.013569467450271 5.5000000000000009 14.625150629157984 17.013569467450271 12.022110421324696 11.986052891326006 12.022110421324696 3.5000000000000004 5.5000000000000009 18.084169954909168 18.983422377220048 17.928571428571434
decision_type=2 2 2 2 2 2 2 2 2 2 2 2 2 2 2 2 2 2 2 2 2 2 2 2 2 2 2 2 2 2
left_child=3 4 6 11 25 29 15 8 24 10 23 -1 13 22 -11 -3 -9 -18 -16 -17 -14 -22 -7 -6 -4 -2 -27 -19 -29 -5
right_child=1 2 7 5 9 12 -8 16 -10 14 -12 -13 20 -15 18 19 17 27 -20 -21 21 -23 -24 -25 -26 26 -28 28 -30 -31
leaf_value=-0.10123610219067132 0.095151935271618235 0.19941963968595341 0.18204832654982811 -0.2960941182599402 0.042782727425563043 -0.06455975209385828 0.425977468328185 -0.03662139926245539 0.33944713026103712 -0.1185462915605635 0.15767602263058178 0.024926138543846371 -0.19953960519001301 0.059482054076603653 0.03821349918701613 0.38251690037643926 0.1605089031171413 -0.050766963652777025 -0.070843046034230292 0.20201598169499563 -0.071764234730755896 -0.16463249014760489 -0.20783831353234944 -0.12713822886715601 -0.045817803548869947 0.25308415484909708 0.093569550801832768 0.36141186528986224 -0.03568457698803134 -0.19248506650380326
leaf_weight=4406 5104 5583 1467 2323 2982 4571 2263 2265 1822 4214 3017 8976 4668 3196 6351 2817 4814 1882 4853 1441 8750 6419 1868 1328 767 2620 1293 570 1033 11137
leaf_count=4406 5104 5583 1467 2323 2982 4571 2263 2265 1822 4214 3017 8976 4668 3196 6351 2817 4814 1882 4853 1441 8750 6419 1868 1328 767 2620 1293 570 1033 11137
internal_value=-1.26947e-11 0.10538 0.189333 -0.109444 0.034743 -0.13838 0.284699 0.110379 0.209664 -0.00730773 0.059294 -0.0166126 -0.105504 -0.0511925 -0.0389585 0.252212 0.0722588 0.101975 -0.00902422 0.321431 -0.131883 -0.111063 -0.106126 -0.00957343 0.103815 0.140814 0.200375 0.0211188 0.105516 -0.210366
internal_weight=114800 58486 26724 56314 31762 42932 12104 14620 4056 22745 7327 13382 29472 9635 15418 9841 10564 8299 11204 4258 19837 15169 6439 4310 2234 9017 3913 3485 1603 13460
internal_count=114800 58486 26724 56314 31762 42932 12104 14620 4056 22745 7327 13382 29472 9635 15418 9841 10564 8299 11204 4258 19837 15169 6439 4310 2234 9017 3913 3485 1603 13460
is_linear=0
shrinkage=0.05


Tree=20
num_leaves=31
num_cat=0
split_feature=7 1 7 7 1 2 2 1 7 2 2 2 2 2 2 7 7 7 2 2 7 2 2 2 2 7 7 7 7 7
split_gain=479342 108333 84405.4 68565.5 42148.8 23689.2 21610.2 20847.6 17582.2 17427.1 21639.5 16525.9 19449.8 16294.3 19875.7 10713.9 8896.34 8647.62 6036.17 5824.57 5821.52 5402.3 4991.12 4968.11 5473.21 4736.85 4463.29 4304.31 4201.39 2872.92
threshold=29.500000000000004 1.0000000180025095e-35 24.071428571428573 35.071428571428577 1.0000000180025095e-35 3.5000000000000004 5.5000000000000009 1.0000000180025095e-35 37.071428571428577 3.5000000000000004 5.5000000000000009 3.5000000000000004 5.5000000000000009 3.5000000000000004 5.5000000000000009 19.642857142857149 42.214285714285722 41.214285714285722 3.5000000000000004 5.5000000000000009 26.785714285714288 3.5000000000000004 5.5000000000000009 3.5000000000000004 5.5000000000000009 32.500000000000007 32.500000000000007 17.928571428571434 26.785714285714288 26.500000000000004
decision_type=2 2 2 2 2 2 2 2 2 2 2 2 2 2 2 2 2 2 2 2 2 2 2 2 2 2 2 2 2 2
left_child=2 3 7 13 9 17 16 11 18 20 28 15 27 25 26 -1 -7 -5 -3 -20 -4 -6 -23 -10 -25 -2 -15 -13 -11 -12
right_child=1 8 4 5 21 6 -8 -9 23 10 29 12 -14 14 -16 -17 -18 -19 19 -21 -22 22 -24 24 -26 -27 -28 -29 -30 -31
leaf_value=-0.26418757012023503 -0.015288062123662252 0.21831785483274288 -0.10988809811933807 0.10031511416474555 0.088623856284063995 0.27256228440352886 0.11789287208700434 0.017987314665628289 0.40685538089160478 -0.00071458202348458045 -0.13785387288680229 -0.17663672603118946 -0.20856867577530547 0.10624839014943832 -0.0061148531330642211 -0.1700870253079598 0.4837465260690994 0.22210938738292199 0.43881454609229043 0.21737707954280172 -0.055776817725745054 0.2981591093340164 0.08090845649510775 0.68670002395692087 0.39490805168142207 0.043038503287191797 0.1871857911594349 -0.05857987104659388 0.064275526874990094 -0.061748263900406213
leaf_weight=4099 8626 1701 10011 8595 1678 4622 2565 1728 882 5086 2279 867 3845 4398 3619 11543 559 1755 848 457 9872 812 392 460 247 5836 2780 7052 4866 2720
leaf_count=4099 8626 1701 10011 8595 1678 4622 2565 1728 882 5086 2279 867 3845 4398 3619 11543 559 1755 848 457 9872 812 392 460 247 5836 2780 7052 4866 2720
internal_value=-1.40625e-11 0.120636 -0.0865297 0.0961695 -0.0371508 0.170458 0.236586 -0.150454 0.351488 -0.0523544 -0.0115707 -0.161075 -0.116304 0.0429481 0.0894255 -0.194746 0.295348 0.120967 0.280377 0.361269 -0.0830216 0.146611 0.227426 0.486011 0.584759 0.00824906 0.137595 -0.0715052 0.0310621 -0.0964441
internal_weight=114800 47950 66850 43355 37716 18096 7746 29134 4595 34834 14951 27406 11764 25259 10797 15642 5181 10350 3006 1305 19883 2882 1204 1589 707 14462 7178 7919 9952 4999
internal_count=114800 47950 66850 43355 37716 18096 7746 29134 4595 34834 14951 27406 11764 25259 10797 15642 5181 10350 3006 1305 19883 2882 1204 1589 707 14462 7178 7919 9952 4999
is_linear=0
shrinkage=0.05


Tree=21
num_leaves=31
num_cat=0
split_feature=7 7 1 7 1 0 0 0 0 0 1 0 0 0 0 7 0 0 0 0 0 0 0 7 0 0 0 0 0 0
split_gain=433388 96503 90021.6 47919.2 45027.2 24686.8 25332.3 22527 22767.6 20537.5 20340.2 19561.2 18873.9 17889 17672.2 16241.1 15273.7 18573.8 15229.4 12660.6 25422.7 12654.3 23482.8 12357.6 12103.4 11711.4 18363 10303.4 11772.3 9373.29
threshold=30.642857142857149 24.357142857142858 1.0000000180025095e-35 37.357142857142868 1.0000000180025095e-35 14.006310009782299 13.040104658265586 13.992581263627988 14.726477672831665 14.625150629157984 1.0000000180025095e-35 16.989424982858974 16.989424982858974 11.986052891326006 12.923048604908333 19.500000000000004 14.006310009782299 14.490782619561916 11.986052891326006 17.976670302844692 18.983422377220048 17.882401497752568 18.983422377220048 39.357142857142868 16.989424982858974 17.882401497752568 18.983422377220048 13.992581263627988 13.040104658265586 16.610665276207545
decision_type=2 2 2 2 2 2 2 2 2 2 2 2 2 2 2 2 2 2 2 2 2 2 2 2 2 2 2 2 2 2
left_child=1 10 3 7 5 6 13 14 -9 -7 15 29 -10 -3 18 -1 -5 -18 -2 -13 -21 -14 -23 -4 -19 -26 -27 28 -17 -11
right_child=2 4 23 16 -6 9 -8 8 12 11 -12 19 21 -15 -16 27 17 24 -20 20 -22 22 -24 -25 25 26 -28 -29 -30 -31
leaf_value=-0.21815913313461374 0.11885358138854206 0.0020572562684197703 0.30670912894670643 0.27563586302214121 0.15185776796643 -0.15286717209986422 0.094151437094053214 -0.064956104125337435 0.11808325821876531 -0.027356743202313752 0.020377977614535324 -0.16682521401230754 -0.085556996359082413 -0.16487758441064687 0.20392775869680815 -0.12725563100991599 -0.038534013330821716 0.23539928888433034 -0.09473182139178242 0.08778493104004427 -0.16828773234854993 0.20312093548452625 -0.086518258752253774 0.51311519699057939 -0.050780941328496837 0.35230301215581505 -0.032512136274081477 -0.15499857506472869 0.00031152752524831199 0.07974049951483024
leaf_weight=6709 3108 6075 3023 3725 3362 5595 5822 4226 7791 9118 1866 4050 2514 2181 4468 5393 1096 4069 1141 1936 1941 1509 1305 954 885 719 545 14320 2721 2633
leaf_count=6709 3108 6075 3023 3725 3362 5595 5822 4226 7791 9118 1866 4050 2514 2181 4468 5393 1096 4069 1141 1936 1941 1509 1305 954 885 719 545 14320 2721 2633
internal_value=4.91798e-11 -0.0725176 0.130146 0.105912 -0.0237753 -0.0387808 0.0142811 0.0689299 0.0359755 -0.0683382 -0.139657 -0.0443042 0.0684884 -0.0420422 0.134502 -0.149904 0.193224 0.151251 0.0614987 -0.105 -0.0404165 -0.00403287 0.0688 0.356222 0.184703 0.0887136 0.186382 -0.129492 -0.0844765 -0.00335989
internal_weight=114800 73722 41078 37101 42713 39351 14078 26062 17345 25273 31009 19678 13119 8256 8717 29143 11039 7314 4249 7927 3877 5328 2814 3977 6218 2149 1264 22434 8114 11751
internal_count=114800 73722 41078 37101 42713 39351 14078 26062 17345 25273 31009 19678 13119 8256 8717 29143 11039 7314 4249 7927 3877 5328 2814 3977 6218 2149 1264 22434 8114 11751
is_linear=0
shrinkage=0.05


Tree=22
num_leaves=31
num_cat=0
split_feature=6 8 4 8 4 8 4 4 8 4 8 4 1 1 4 8 8 4 4 4 4 8 6 2 2 2 8 4 5 2
split_gain=227746 110150 71553.2 61632.7 60062.3 44354.6 35956.6 34264.6 24525.8 26151 18852 11677.4 9427.26 9413.48 9171.64 8518.21 7633.85 6985.58 6634.62 6473.49 6286.09 6301.64 6202.12 6049.36 7682.89 5386.02 5316.39 5010.67 4816.84 4591.72
threshold=28.500000000000004 -0.033083016314184525 37.500000000000007 0.0063642786907851532 23.500000000000004 0.026182952964285747 28.500000000000004 28.500000000000004 0.023813081616612334 26.500000000000004 -0.046795728808058483 31.500000000000004 1.0000000180025095e-35 1.0000000180025095e-35 46.500000000000007 -0.05007693417622177 0.035129607031858086 17.500000000000004 42.500000000000007 37.500000000000007 21.500000000000004 0.031685544089675284 43.500000000000007 5.5000000000000009 3.5000000000000004 5.5000000000000009 -0.011778143847856358 23.500000000000004 22.500000000000004 5.5000000000000009
decision_type=2 2 2 2 2 2 2 2 2 2 2 2 2 2 2 2 2 2 2 2 2 2 2 2 2 2 2 2 2 2
left_child=3 7 8 4 10 18 20 13 9 26 28 15 -9 27 -7 -6 -8 -12 -4 -18 -5 -22 -14 24 -11 -17 -3 -2 -1 -16
right_child=1 2 5 6 11 14 16 12 -10 23 17 -13 22 -15 29 25 19 -19 -20 -21 21 -23 -24 -25 -26 -27 -28 -29 -30 -31
leaf_value=-0.054379752832139187 0.046300584179644694 -0.0036857225215193596 0.19426144600687301 -0.21734634081022974 0.10278235649857181 0.01800766863066278 -0.0035241258766346034 0.23788507257351743 -0.078301855663848619 0.045153485371657393 -0.17116006696860689 0.13317980606446608 0.32723088261171762 0.23689308811583107 0.18370403248587847 0.024067620081991745 -0.11370027510684272 -0.090086541150342342 0.3081348720645597 -0.012598852873557709 -0.10353880389393125 -0.1831801103536041 0.53982212418004083 -0.027046067567779067 0.13583003263471136 -0.077469073641350195 -0.09170831898756697 0.13974855141503431 0.02965193700571099 0.024532570969184236
leaf_weight=3360 2651 3037 2927 5124 2952 5269 4291 3840 9216 5336 3846 3651 1914 1515 1607 6476 5820 8594 2272 2175 4310 5862 418 1384 4155 1636 3942 3126 3463 631
leaf_count=3360 2651 3037 2927 5124 2952 5269 4291 3840 9216 5336 3846 3651 1914 1515 1607 6476 5820 8594 2272 2175 4310 5862 418 1384 4155 1636 3942 3126 3463 631
internal_value=-7.01745e-11 0.0757276 0.0338849 -0.0654928 -0.0204174 0.131769 -0.121021 0.199342 -0.0120597 0.0221336 -0.0785193 0.0556422 0.286041 0.125959 0.0540262 0.0300557 -0.0573222 -0.115152 0.244025 -0.0861961 -0.172185 -0.149435 0.365337 0.0706097 0.0848502 0.00359005 -0.0534042 0.0968663 -0.0117296 0.138826
internal_weight=114800 53240 39776 61560 33978 12706 27582 13464 27070 17854 19263 14715 6172 7292 7507 11064 12286 12440 5199 7995 15296 10172 2332 10875 9491 8112 6979 5777 6823 2238
internal_count=114800 53240 39776 61560 33978 12706 27582 13464 27070 17854 19263 14715 6172 7292 7507 11064 12286 12440 5199 7995 15296 10172 2332 10875 9491 8112 6979 5777 6823 2238
is_linear=0
shrinkage=0.05


Tree=23
num_leaves=31
num_cat=0
split_feature=7 8 7 8 7 7 0 0 7 0 0 0 0 0 0 7 0 8 0 0 0 4 0 0 0 0 0 7 0 0
split_gain=365119 101864 53319.2 47340.3 46215.6 27360.5 19918.1 22808.6 15347.5 15054.8 14595.7 13296.8 12375.1 12316.2 12565.8 10849.6 10517.9 10505.9 9810.57 10904.5 11551.1 8830.72 8492.93 17370.6 8462.67 8025.8 20940.9 7421.94 6932.26 7125.59
threshold=27.928571428571434 -0.022520306499292816 36.214285714285722 0.0079302432421339848 33.785714285714292 22.500000000000004 14.006310009782299 13.040104658265586 22.642857142857149 14.726477672831665 14.006310009782299 17.013569467450271 13.040104658265586 14.540672407142745 17.013569467450271 40.785714285714292 12.022110421324696 -0.041259071776061355 16.682796551524451 15.994590374254363 15.53164972036465 26.500000000000004 18.084169954909168 18.983422377220048 12.022110421324696 18.084169954909168 18.983422377220048 17.928571428571434 11.589317845514399 9.9670904937239175
decision_type=2 2 2 2 2 2 2 2 2 2 2 2 2 2 2 2 2 2 2 2 2 2 2 2 2 2 2 2 2 2
left_child=3 4 6 5 -2 27 7 16 -5 -8 12 18 24 -12 -15 -6 28 -7 19 20 -11 -19 -16 -24 -4 -13 -27 -1 29 -3
right_child=1 2 10 8 15 17 9 -9 -10 11 13 25 -14 14 22 -17 -18 21 -20 -21 -22 -23 23 -25 -26 26 -28 -29 -30 -31
leaf_value=-0.20797949184861617 0.11344291380140606 0.18059660720337956 0.20269459732454417 -0.19566779634262846 0.24414736499132081 0.031567917365753498 -0.093859133142810233 0.16355886460686186 -0.11332278571875819 -0.0064537553822218542 -0.034642188027363956 -0.1018941151321443 0.32123504738432557 0.18437511661711903 -0.060988707811969627 0.39562683439435919 -0.10800935921089894 -0.06724800163658877 0.15510144135330578 -0.051301501048267598 0.18150769397797123 0.026069807228200598 0.34492837895098188 -0.040837482459360488 -0.044425438660214506 0.18130888483306815 -0.094333771228207117 -0.095873139596411971 0.15611613128413906 -0.034882198071453811
leaf_weight=1748 10799 467 1123 8859 6982 7360 5386 3648 15663 1751 1426 3404 1638 3808 1135 1423 1562 9758 1672 2938 1533 3425 525 657 501 1116 1801 9501 1041 2150
leaf_count=1748 10799 467 1123 8859 6982 7360 5386 3648 15663 1751 1426 3404 1638 3808 1135 1423 1562 9758 1672 2938 1533 3425 525 657 501 1116 1801 9501 1041 2150
internal_value=-1.75025e-11 0.0874981 0.0413606 -0.0908728 0.181873 -0.0506107 0.00545998 0.0676377 -0.143071 -0.0226708 0.135882 0.00430212 0.224265 0.0977004 0.128512 0.269793 0.000603096 -0.0162867 0.0475749 0.01868 0.0812883 -0.0430036 0.0367005 0.130505 0.126459 -0.0497393 0.0111229 -0.113294 0.0469816 0.00356969
internal_weight=114800 58486 39282 56314 19204 31792 28469 8868 24522 19601 10813 14215 3262 7551 6125 8405 5220 20543 7894 6222 3284 13183 2317 1182 1624 6321 2917 11249 3658 2617
internal_count=114800 58486 39282 56314 19204 31792 28469 8868 24522 19601 10813 14215 3262 7551 6125 8405 5220 20543 7894 6222 3284 13183 2317 1182 1624 6321 2917 11249 3658 2617
is_linear=0
shrinkage=0.05


Tree=24
num_leaves=31
num_cat=0
split_feature=7 7 1 1 2 2 1 7 0 0 0 0 0 0 0 0 0 7 0 0 0 0 0 0 0 0 0 0 0 0
split_gain=333054 91948 64784.7 33873 28513.6 28479.1 23960.6 19214 18483.5 18328 17679.9 16461 13350.8 14734.4 12991.9 12593.3 15281.3 12207.4 10379 10455.1 10292.3 19209 9911.49 9690.84 9251.38 9807.13 16180.7 8804.47 7551.72 7893.19
threshold=31.928571428571434 26.071428571428573 1.0000000180025095e-35 1.0000000180025095e-35 3.5000000000000004 5.5000000000000009 1.0000000180025095e-35 20.071428571428573 14.006310009782299 13.040104658265586 14.726477672831665 16.989424982858974 14.006310009782299 13.040104658265586 11.986052891326006 13.992581263627988 14.516067906418712 39.357142857142868 14.625150629157984 16.989424982858974 17.976670302844692 18.983422377220048 12.022110421324696 13.143386149135221 17.013569467450271 17.976670302844692 18.983422377220048 11.986052891326006 14.006310009782299 14.565890622629949
decision_type=2 2 2 2 2 2 2 2 2 2 2 2 2 2 2 2 2 2 2 2 2 2 2 2 2 2 2 2 2 2
left_child=1 6 4 8 15 17 7 -1 9 14 -10 -12 13 22 -3 23 -17 28 -14 -20 -13 -22 -9 27 -18 -26 -27 -2 -6 -30
right_child=2 3 -4 -5 5 -7 -8 12 10 -11 11 20 18 -15 -16 16 24 -19 19 -21 21 -23 -24 -25 25 26 -28 -29 29 -31
leaf_value=-0.18184151010937127 0.11791195504203399 0.023586167703080779 0.33795122112097342 0.16055806317237017 0.25902015151462604 0.059550954460321583 0.03803771928646138 -0.063011737771424284 -0.11906130759592029 0.10588433576907448 0.026782594626810076 -0.13488888257746198 -0.19005988791960279 0.021406716609830602 -0.13177405442668658 -0.082492031710564434 0.10117519905888146 0.33416301199487358 -0.069162567184720164 -0.15144046563855623 0.10326542528783569 -0.13258923696851538 -0.19678646111132647 0.18941184101720593 -0.09005780388488048 0.21215530629906426 -0.07914038469576154 -0.073875908376111299 0.018997085015971707 0.18196545369352579
leaf_weight=8503 2005 5155 3397 3080 2366 4369 2728 5522 5344 5375 9874 3453 4351 4131 1821 2187 6111 1746 9405 6550 1754 1700 1848 2992 1639 1024 892 853 930 3695
leaf_count=8503 2005 5155 3397 3080 2366 4369 2728 5522 5344 5375 9874 3453 4351 4131 1821 2187 6111 1746 9405 6550 1754 1700 1848 2992 1639 1024 892 853 930 3695
internal_value=-2.0807e-11 -0.0554825 0.130724 0.00168856 0.107875 0.16378 -0.105371 -0.115077 -0.0125044 0.0364954 -0.039858 -0.0146352 -0.0972283 -0.0541849 -0.0169687 0.0664881 0.0368616 0.2159 -0.121607 -0.10294 -0.0738447 -0.0128182 -0.0965553 0.126516 0.0638662 -0.000267491 0.0765417 0.0606709 0.186364 0.149196
internal_weight=114800 80594 34206 37556 30809 13106 43038 40310 34476 12351 22125 16781 31807 11501 6976 17703 11853 8737 20306 15955 6907 3454 7370 5850 9666 3555 1916 2858 6991 4625
internal_count=114800 80594 34206 37556 30809 13106 43038 40310 34476 12351 22125 16781 31807 11501 6976 17703 11853 8737 20306 15955 6907 3454 7370 5850 9666 3555 1916 2858 6991 4625
is_linear=0
shrinkage=0.05


Tree=25
num_leaves=31
num_cat=0
split_feature=7 7 7 0 0 2 2 0 0 0 0 7 0 2 0 0 2 2 2 0 0 2 2 0 2 0 0 0 0 2
split_gain=301134 88773.8 33824.9 25181.4 22020.8 20951.8 28875.3 20725.4 18339.5 16168.7 15131.9 13935.5 13394.7 12020.5 10751.1 20909.2 10328.3 10353.9 9494.85 8290.82 15632.1 8185.51 7307.73 7260.42 6931.49 6593.9 6221.94 5863.09 5629.08 5447.72
threshold=32.357142857142868 26.071428571428573 41.214285714285722 13.992581263627988 13.992581263627988 3.5000000000000004 5.5000000000000009 14.490782619561916 17.013569467450271 14.468588775980704 16.989424982858974 20.928571428571434 12.709837973001465 3.5000000000000004 17.798269645942732 18.983422377220048 3.5000000000000004 5.5000000000000009 5.5000000000000009 17.723184003113776 18.983422377220048 3.5000000000000004 3.5000000000000004 11.986052891326006 5.5000000000000009 14.006310009782299 13.992581263627988 18.214418150591936 12.805924930044531 3.5000000000000004
decision_type=2 2 2 2 2 2 2 2 2 2 2 2 2 2 2 2 2 2 2 2 2 2 2 2 2 2 2 2 2 2
left_child=1 5 3 13 12 11 25 -5 16 -6 21 -1 23 -2 -10 -16 -9 -18 -15 -12 27 -11 -4 -3 -23 28 -13 -21 -7 -14
right_child=2 4 22 7 9 6 -8 8 14 10 19 26 29 18 15 -17 17 -19 -20 20 -22 24 -24 -25 -26 -27 -28 -29 -30 -31
leaf_value=-0.19029097775670051 0.12858399697883222 0.039101109558946689 0.21115428849428708 -0.034546537745408612 -0.10835979951661151 -0.0076914326036192611 -0.14862393443503785 0.098796274886995661 -0.053639219933167261 -0.007419989320741862 -0.12013532465800339 -0.06809633898076109 0.065929362212110557 0.29269330545586908 0.20843591011819523 -0.058355386271393896 0.25913945742115491 0.090781079576447654 0.13411060398137048 -0.04076125557881273 -0.1252223802262715 0.11286369367178406 0.35363153996273794 -0.065143008678044553 -0.0061924887298959721 -0.044041521264455846 -0.12954662574755119 0.12673968993519183 0.1093110482242467 0.15926450287147542
leaf_weight=6950 5743 6094 2062 3392 4724 3068 6120 5564 2306 7257 3373 6558 3574 2819 1657 1319 2751 1367 1419 786 1804 3687 1597 2301 1829 7719 11077 1558 1546 2779
leaf_count=6950 5743 6094 2062 3392 4724 3068 6120 5564 2306 7257 3373 6558 3574 2819 1657 1319 2751 1367 1419 786 1804 3687 1597 2301 1829 7719 11077 1558 1546 2779
internal_value=-5.16559e-11 -0.0503386 0.130274 0.1118 0.00352019 -0.100103 -0.0598351 0.0770444 0.10234 -0.0250472 -0.00565389 -0.130327 0.051981 0.17572 0.0273979 0.0901907 0.143224 0.203252 0.239595 -0.0619194 -0.0145803 0.0274764 0.27334 0.0105287 0.0733869 -0.0157755 -0.106695 0.0705726 0.0315123 0.106757
internal_weight=114800 82804 31996 28337 39766 43038 18453 18356 14964 25018 20294 24585 14748 9981 5282 2976 9682 4118 4238 7521 4148 12773 3659 8395 5516 12333 17635 2344 4614 6353
internal_count=114800 82804 31996 28337 39766 43038 18453 18356 14964 25018 20294 24585 14748 9981 5282 2976 9682 4118 4238 7521 4148 12773 3659 8395 5516 12333 17635 2344 4614 6353
is_linear=0
shrinkage=0.05


Tree=26
num_leaves=31
num_cat=0
split_feature=7 8 8 7 7 7 8 7 1 7 2 2 2 2 2 2 8 2 2 2 1 1 2 2 0 0 2 0 2 2
split_gain=273038 80449.8 42540 38401.2 32630.9 23904.3 15623 13641.8 13008.2 11032.1 10549.4 14592 8686.5 11528.1 8557.46 9923.46 8279.17 7621.95 7167.76 6618.69 6526.34 5638.55 4990.13 5494.58 4893.39 12650.4 4670.09 4351.11 4329.03 4304.6
threshold=28.357142857142858 -0.022520306499292816 0.0074081247911956813 37.071428571428577 33.785714285714292 23.214285714285719 0.033041348631228436 23.642857142857149 1.0000000180025095e-35 43.071428571428577 3.5000000000000004 5.5000000000000009 3.5000000000000004 5.5000000000000009 3.5000000000000004 5.5000000000000009 0.028535739563284482 3.5000000000000004 5.5000000000000009 3.5000000000000004 1.0000000180025095e-35 1.0000000180025095e-35 3.5000000000000004 5.5000000000000009 14.006310009782299 13.040104658265586 3.5000000000000004 14.006310009782299 5.5000000000000009 3.5000000000000004
decision_type=2 2 2 2 2 2 2 2 2 2 2 2 2 2 2 2 2 2 2 2 2 2 2 2 2 2 2 2 2 2
left_child=2 4 5 6 17 14 12 29 19 16 -7 20 -3 27 -1 -16 26 -2 21 -6 -12 -19 -10 -24 25 -9 -5 -14 -21 -4
right_child=1 3 7 9 8 10 -8 24 22 -11 11 -13 13 -15 15 -17 -18 18 -20 28 -22 -23 23 -25 -26 -27 -28 -29 -30 -31
leaf_value=-0.12301439890089734 0.065424311931973109 0.0082672809907397855 -0.18948542444907979 0.10871496759902198 0.1531531973138226 -0.033753571365126987 -0.037151879902361407 -0.095360861167076497 0.27162120279892893 0.27924234297436973 0.06626380055525305 -0.052649565723032421 0.19063236966708652 -0.007584897718203947 0.0035937737277271006 -0.1345915148616709 0.050090172402972671 0.16143979890365776 0.062283968432233189 0.30303595621465856 0.22963525857188483 0.32845846933643918 0.49995169637764958 0.26409130685673371 -0.10841978432546867 0.10535629091327532 0.21293771837403344 0.090849489142889872 0.16272568271481105 -0.12768235420367033
leaf_weight=7671 5563 9855 6582 2515 3423 11247 11096 3076 1339 1062 4972 2831 1657 2482 3881 1953 3490 2178 1411 1767 697 658 695 383 10454 1054 1877 3207 798 4926
leaf_count=7671 5563 9855 6582 2515 3423 11247 11096 3076 1339 1062 4972 2831 1657 2482 3881 1953 3490 2178 1411 1767 697 658 695 383 10454 1054 1877 3207 798 4926
internal_value=-3.33465e-11 0.0797672 -0.0745412 0.0376498 0.165877 -0.0370417 0.00910497 -0.122331 0.238177 0.12796 -0.00198298 0.0400551 0.0389443 0.0800989 -0.0883046 -0.0426654 0.107576 0.103933 0.154373 0.198658 0.0863502 0.200191 0.336084 0.416153 -0.0902156 -0.0441367 0.153256 0.124842 0.259384 -0.163031
internal_weight=114800 55456 59344 37241 18215 33252 28297 26092 8405 8944 19747 8500 17201 7346 13505 5834 7882 9810 4247 5988 5669 2836 2417 1078 14584 4130 4392 4864 2565 11508
internal_count=114800 55456 59344 37241 18215 33252 28297 26092 8405 8944 19747 8500 17201 7346 13505 5834 7882 9810 4247 5988 5669 2836 2417 1078 14584 4130 4392 4864 2565 11508
is_linear=0
shrinkage=0.05


Tree=27
num_leaves=31
num_cat=0
split_feature=7 7 8 8 8 1 1 4 8 7 7 7 1 4 8 7 8 4 8 8 4 7 8 4 8 4 7 6 6 4
split_gain=248720 74136.1 51036.3 38615.8 24919.8 21015.4 15214.4 13371.2 11339.8 9920.4 9446.42 7929.26 7923.56 6136.59 8292.58 5609.68 5549.03 8048.09 5057.03 4846.47 4379.02 4108.33 3731.46 4903.1 3317.6 5011.61 3299.05 2882.95 2811.95 2743.19
threshold=32.500000000000007 25.928571428571434 -0.0024568233847626071 0.0058535215411654748 -0.0024568233847626071 1.0000000180025095e-35 1.0000000180025095e-35 41.500000000000007 0.029730257842778166 18.500000000000004 38.214285714285722 19.785714285714288 1.0000000180025095e-35 29.500000000000004 -0.028818508113202575 41.214285714285722 0.044921565026469497 31.500000000000004 0.036473671459574704 0.14165080695868285 25.500000000000004 43.357142857142868 0.037956360773788507 21.500000000000004 -0.038337584068122814 36.500000000000007 22.357142857142858 43.500000000000007 34.500000000000007 32.500000000000007
decision_type=2 2 2 2 2 2 2 2 2 2 2 2 2 2 2 2 2 2 2 2 2 2 2 2 2 2 2 2 2 2
left_child=1 4 5 6 9 10 13 16 -9 -1 24 -6 26 14 -3 27 17 -4 20 21 -5 -10 23 -13 -2 -26 -11 -7 -8 -20
right_child=2 3 7 18 11 15 28 8 19 12 -12 22 -14 -15 -16 -17 -18 -19 29 -21 -22 -23 -24 -25 25 -27 -28 -29 -30 -31
leaf_value=-0.15476982707953302 0.16874488848145996 0.050360433980856767 -0.04520842458375432 -0.091864043879564872 -0.19105105769759265 0.25330072123019826 0.12517067654185146 0.21066862916784782 0.073147055441428729 -0.081067347605302639 0.22413077455704539 -0.14444091850110172 0.045780728207820157 0.077698914836732039 -0.025231108701270141 0.45527073396930418 -0.039223334792762271 0.078164749219430743 -0.10441940620180185 -0.066614639842525178 -0.0047520710875298081 0.25044388868325712 -0.14044734208434065 -0.070080675638435661 0.076328581122120667 0.18995595129676077 -0.034075798234852163 0.41521341277315982 0.24839907757578042 -0.051727235820619721
leaf_weight=2089 3131 7370 1809 1822 4136 2161 2694 2049 3742 6151 3663 3283 2358 4933 7146 515 2764 4909 4410 573 6929 358 7689 6826 4012 1280 9509 315 559 5615
leaf_count=2089 3131 7370 1809 1822 4136 2161 2694 2049 3742 6151 3663 3283 2358 4933 7146 515 2764 4909 4410 573 6929 358 7689 6826 4012 1280 9509 315 559 5615
internal_value=-3.97197e-11 -0.0450404 0.120256 0.00238602 -0.0918316 0.186466 0.0462606 0.058651 0.112595 -0.0516256 0.1571 -0.128689 -0.0396671 0.0295205 0.0131479 0.305129 0.0204087 0.0449432 -0.0506626 0.0695923 -0.0228892 0.0886281 -0.114197 -0.0942299 0.127949 0.103812 -0.0525333 0.273899 0.146346 -0.0749065
internal_weight=114800 83519 31281 41478 42041 15077 22702 16204 6722 20107 12086 21934 18018 19449 14516 2991 9482 6718 18776 4673 8751 4100 17798 10109 8423 5292 15660 2476 3253 10025
internal_count=114800 83519 31281 41478 42041 15077 22702 16204 6722 20107 12086 21934 18018 19449 14516 2991 9482 6718 18776 4673 8751 4100 17798 10109 8423 5292 15660 2476 3253 10025
is_linear=0
shrinkage=0.05


Tree=28
num_leaves=31
num_cat=0
split_feature=7 8 7 8 7 7 0 8 0 0 0 2 7 2 2 0 2 2 0 0 2 2 2 2 0 0 0 2 1 1
split_gain=224489 70260 40405.7 30942.2 25736.8 15777.3 14601.8 14503.4 13801.3 12741.6 12471.7 9879.7 9376 9324.19 13826.2 8740.64 8311.68 11037.8 8195.86 17059.8 7463.17 6488.51 6184.63 6899.99 6004.99 9430.06 9812.25 5916.59 5591.1 5292.11
threshold=27.642857142857149 -0.031866975493658183 35.071428571428577 0.0084191810718249344 33.357142857142868 21.928571428571434 14.006310009782299 0.029133926243655298 14.516067906418712 17.013569467450271 13.040104658265586 3.5000000000000004 22.071428571428573 3.5000000000000004 5.5000000000000009 12.022110421324696 3.5000000000000004 5.5000000000000009 18.084169954909168 18.983422377220048 5.5000000000000009 3.5000000000000004 3.5000000000000004 5.5000000000000009 16.610665276207545 15.994590374254363 15.493527888868531 5.5000000000000009 1.0000000180025095e-35 1.0000000180025095e-35
decision_type=2 2 2 2 2 2 2 2 2 2 2 2 2 2 2 2 2 2 2 2 2 2 2 2 2 2 2 2 2 2
left_child=3 4 7 5 21 22 10 16 -8 24 15 -6 -5 -7 28 -4 -3 -18 -11 -20 29 -2 -1 -24 25 26 -10 -23 -15 -13
right_child=1 2 6 12 11 13 8 -9 9 18 -12 20 -14 14 -16 -17 17 -19 19 -21 -22 27 23 -25 -26 -27 -28 -29 -30 -31
leaf_value=-0.12903764723744524 0.059977123468778072 -0.0014740676123298588 0.15475719246986272 -0.16348175869529655 0.17408164123072528 -0.045645262238868278 -0.053122538057074613 -0.043934252810691875 0.082234243795116901 -0.06586458448068544 0.25757941138432944 0.28811631677213162 -0.095557964784083585 0.048049621566351154 -0.065017292219156489 -0.062257941908515892 0.10917210010348413 -0.0176177554270085 0.276866664158256 -0.053603540310963198 0.18048026050476884 0.19087026807869481 -0.0030942628043359867 -0.14015546964077424 0.23881725106017285 0.014849868141983698 0.28231383145306704 0.058250134654664082 0.2001453120413916 0.45437383998051245
leaf_weight=5471 4965 10323 1609 7465 4205 12148 1913 11504 1343 1548 2298 1420 15906 5360 3077 652 5169 2570 714 862 1032 2533 2793 1368 1255 1508 1127 1259 681 722
leaf_count=5471 4965 10323 1609 7465 4205 12148 1913 11504 1343 1548 2298 1420 15906 5360 3077 652 5169 2570 714 862 1032 2533 2793 1368 1255 1508 1127 1259 681 722
internal_value=-3.46877e-11 0.0662039 0.0337276 -0.073843 0.155556 -0.0410076 0.101082 -5.42343e-05 0.0680246 0.0957563 0.175549 0.224346 -0.117254 -0.0169619 0.0212532 0.092177 0.0278937 0.0670672 0.0158509 0.0961146 0.290938 0.0975902 -0.0940968 -0.0481555 0.143458 0.113374 0.173526 0.146838 0.0651953 0.344156
internal_weight=114800 60531 44395 54269 16136 30898 14829 29566 10270 8357 4559 7379 23371 21266 9118 2261 18062 7739 3124 1576 3174 8757 9632 4161 5233 3978 2470 3792 6041 2142
internal_count=114800 60531 44395 54269 16136 30898 14829 29566 10270 8357 4559 7379 23371 21266 9118 2261 18062 7739 3124 1576 3174 8757 9632 4161 5233 3978 2470 3792 6041 2142
is_linear=0
shrinkage=0.05


Tree=29
num_leaves=31
num_cat=0
split_feature=7 7 8 8 8 1 1 4 8 7 4 8 4 7 8 7 4 8 8 8 4 8 4 1 4 7 5 7 5 4
split_gain=204555 61035.5 41790.3 29397.9 23344.4 17905.8 12420.5 11574.6 11109.1 10763.7 8572.23 7582.48 8002.38 5686.99 5376.14 5000.43 4647.52 6653.31 4099.58 3976.52 6343.45 3948.33 3898.03 3885 3475.02 3169.62 2768.66 2656.48 2513.01 2258.54
threshold=32.500000000000007 26.500000000000004 -0.0024568233847626071 0.0058535215411654748 -0.030030217579609827 1.0000000180025095e-35 1.0000000180025095e-35 40.500000000000007 0.029730257842778166 19.785714285714288 40.500000000000007 0.024419543526805091 23.500000000000004 19.500000000000004 -0.038337584068122814 41.214285714285722 29.500000000000004 -0.024728574961647706 0.14165080695868285 0.042457924148584521 31.500000000000004 0.036473671459574704 50.500000000000007 1.0000000180025095e-35 25.500000000000004 17.357142857142858 45.500000000000007 42.357142857142868 45.500000000000007 32.500000000000007
decision_type=2 2 2 2 2 2 2 2 2 2 2 2 2 2 2 2 2 2 2 2 2 2 2 2 2 2 2 2 2 2
left_child=1 4 5 6 13 10 16 19 27 25 14 12 -11 -1 26 28 17 -3 22 20 -4 24 -10 -15 -5 -6 -2 -9 -7 -23
right_child=2 3 7 21 9 15 -8 8 18 11 -12 -13 -14 23 -16 -17 -18 -19 -20 -21 -22 29 -24 -25 -26 -27 -28 -29 -30 -31
leaf_value=-0.10122895772597962 0.15314231304715742 0.046669807375977791 -0.04359104362743875 -0.084049717378329308 -0.22373494345853212 0.23340660663171753 0.14209218736642684 0.16285197994270345 0.050004399245909839 -0.095283273777375166 0.2490859254106487 -0.11811461474084549 -0.024129688170992116 -0.022366890173133935 0.096122828030413915 0.4202579150211464 0.073366722427327932 -0.026166905242070604 -0.065670794379194666 -0.038648186131958945 0.06881960025561408 -0.094601005779103617 0.16461709726635637 0.050263528404349084 4.3772469730312846e-06 -0.14023310477369993 0.27189535909778323 0.30099978844477393 0.41154368921153006 -0.043773870508790363
leaf_weight=1828 3612 7294 1779 1525 1537 2259 2939 1984 3667 9441 1615 11843 6796 7962 6291 515 4730 5499 601 2560 4261 3719 930 2395 6349 4361 568 422 217 5301
leaf_count=1828 3612 7294 1779 1525 1537 2259 2939 1984 3667 9441 1615 11843 6796 7962 6291 515 4730 5499 601 2560 4261 3719 930 2395 6349 4361 568 422 217 5301
internal_value=-1.44097e-11 -0.0408462 0.109058 0.00666926 -0.0792967 0.168971 0.0469725 0.0533118 0.0982525 -0.100589 0.141864 -0.0876918 -0.0655019 -0.0199221 0.125327 0.278503 0.0310188 0.0153614 0.0571358 0.0135759 0.0357106 -0.042146 0.0731912 -0.0055715 -0.0162748 -0.161993 0.169279 0.187082 0.249019 -0.0647302
internal_weight=114800 83519 31281 37356 46163 15077 20462 16204 7604 33978 12086 28080 16237 12185 10471 2991 17523 12793 5198 8600 6040 16894 4597 10357 7874 5898 4180 2406 2476 9020
internal_count=114800 83519 31281 37356 46163 15077 20462 16204 7604 33978 12086 28080 16237 12185 10471 2991 17523 12793 5198 8600 6040 16894 4597 10357 7874 5898 4180 2406 2476 9020
is_linear=0
shrinkage=0.05


Tree=30
num_leaves=31
num_cat=0
split_feature=7 7 8 8 0 0 0 0 0 8 0 0 2 2 2 0 0 0 0 0 0 0 2 2 2 0 0 2 2 8
split_gain=184869 45744.6 42406.5 29125.6 20441.1 20435.8 18544.2 15698.4 13914.6 13852.4 12226.3 24340.9 10713.5 13182.2 9867.97 9637.99 12340.1 14711.6 8072.3 17371.8 7484.22 7792.98 7358.46 7275.12 8865.24 7144.92 6312.84 5432.96 7857.01 5241.79
threshold=31.214285714285719 24.357142857142858 -0.038337584068122814 -0.0034349514208887317 14.006310009782299 14.565890622629949 12.923048604908333 17.013569467450271 12.022110421324696 -0.0044024908648762065 18.084169954909168 18.983422377220048 3.5000000000000004 5.5000000000000009 3.5000000000000004 16.635692978302945 15.994590374254363 15.493527888868531 14.006310009782299 13.040104658265586 11.589317845514399 10.999282055348667 5.5000000000000009 3.5000000000000004 5.5000000000000009 9.9670904937239175 16.307783587492001 3.5000000000000004 5.5000000000000009 0.031032644655606182
decision_type=2 2 2 2 2 2 2 2 2 2 2 2 2 2 2 2 2 2 2 2 2 2 2 2 2 2 2 2 2 2
left_child=1 9 14 12 6 -6 8 15 20 23 -9 -12 -3 -14 -2 16 17 29 19 25 21 -4 -16 -1 -25 -5 -18 -11 -29 -7
right_child=2 3 4 18 5 7 -8 10 -10 27 11 -13 13 -15 22 -17 26 -19 -20 -21 -22 -23 -24 24 -26 -27 -28 28 -30 -31
leaf_value=-0.086189667592008579 0.14103516390038104 -0.0013370492739930757 0.12422345945411194 0.15074729509894733 -0.064926385988220758 0.10637145709105433 0.19337539947899735 -0.072730313263874913 -0.087638478324523664 -0.14726800746613805 0.22341020612256837 -0.061130247132167595 0.11130732226006552 -0.014854398997652061 0.29803817038698516 0.19091246286802208 -0.082479876016058967 0.22323425611775641 -0.069275620405349389 0.11347078292599465 0.21519456454509026 -0.069810864935676273 0.14878467320701169 0.027645917628255356 -0.10045782086160371 -0.073954276135200114 0.063257683942542886 -0.05270069792440029 -0.16409132283533545 -0.041494428533447668
leaf_weight=8228 4872 12374 1436 383 4188 1361 4664 3115 1287 9495 1379 1652 6259 3094 2513 2204 1435 2044 17043 2135 1066 809 1230 4129 2007 4636 1541 4784 2366 1071
leaf_count=8228 4872 12374 1436 383 4188 1361 4664 3115 1287 9495 1379 1652 6259 3094 2513 2204 1435 2044 17043 2135 1066 809 1230 4129 2007 4636 1541 4784 2366 1071
internal_value=-5.20935e-11 -0.0445148 0.0904391 -0.0128332 0.0617244 0.0332738 0.123129 0.0592998 0.0518735 -0.091435 -0.00316619 0.0683258 0.029188 0.0695727 0.187939 0.0990591 0.0718926 0.124357 -0.0505649 -0.00599045 0.106102 0.054302 0.248991 -0.0554607 -0.014255 -0.0568073 -0.00701564 -0.122479 -0.0895609 0.0412545
internal_weight=114800 76933 37867 45924 29252 19990 9262 15802 4598 31009 6146 3031 21727 9353 8615 9656 7452 4476 24197 7154 3311 2245 3743 14364 6136 5019 2976 16645 7150 2432
internal_count=114800 76933 37867 45924 29252 19990 9262 15802 4598 31009 6146 3031 21727 9353 8615 9656 7452 4476 24197 7154 3311 2245 3743 14364 6136 5019 2976 16645 7150 2432
is_linear=0
shrinkage=0.05


Tree=31
num_leaves=31
num_cat=0
split_feature=7 7 1 1 2 2 1 2 2 2 2 7 0 0 7 0 0 0 0 0 0 0 0 7 0 0 0 0 0 0
split_gain=168664 50396.6 36104.6 22695.5 18498.7 20802.1 17480.8 13128.5 20018.1 12487.3 15995.2 8719.84 7353.89 9805.52 7240.86 6361.79 5871.02 6628.08 6319.66 5685.79 5954.27 7819.59 4991.8 4985.85 4902.55 4967.95 4534.08 4569.61 7422.81 4496.37
threshold=32.500000000000007 26.500000000000004 1.0000000180025095e-35 1.0000000180025095e-35 3.5000000000000004 5.5000000000000009 1.0000000180025095e-35 3.5000000000000004 5.5000000000000009 3.5000000000000004 5.5000000000000009 21.928571428571434 13.992581263627988 14.516067906418712 39.357142857142868 13.279757305525809 13.992581263627988 13.279757305525809 14.540672407142745 16.989424982858974 17.662300134225305 19.045173135029163 11.986052891326006 41.214285714285722 14.006310009782299 14.565890622629949 16.989424982858974 17.976670302844692 18.983422377220048 12.923048604908333
decision_type=2 2 2 2 2 2 2 2 2 2 2 2 2 2 2 2 2 2 2 2 2 2 2 2 2 2 2 2 2 2
left_child=1 6 4 9 12 14 7 11 -9 16 24 -1 15 -14 -6 22 17 -3 -18 -15 -21 -22 -2 -4 29 -26 -20 -28 -29 -11
right_child=2 3 23 -5 5 -7 -8 8 -10 10 -12 -13 13 19 -16 -17 18 -19 26 20 21 -23 -24 -25 25 -27 27 28 -30 -31
leaf_value=-0.14323358978488757 0.088362771196688977 -0.0353264906133645 0.23016661943334379 0.13632752389840935 0.14959951059561041 0.034771327122896586 0.04526497075564672 -0.011932071471332611 -0.12235840662121883 0.061520651327103063 -0.044330398692357366 -0.081451040549348541 -0.077793771925872154 0.076006942998865734 0.26484032739974633 0.15021462642381567 -0.12035138731859861 0.064635212274242834 -0.0065597731828461563 -0.089874283804228058 0.12256709842563709 -0.082702421999404141 -0.055053229206833393 0.39497314406896628 -0.045484908828694923 0.062767440527984081 -0.1293856584069005 0.072025500276615598 -0.1221028543597793 0.17497695611642691
leaf_weight=9002 1841 4069 2606 3070 6215 3971 2972 12443 6124 1914 4933 15622 1989 5545 1746 2601 2669 2799 6050 1306 1267 732 905 557 1348 4958 1968 1020 952 1606
leaf_count=9002 1841 4069 2606 3070 6215 3971 2972 12443 6124 1914 4933 15622 1989 5545 1746 2601 2669 2799 6050 1306 1267 732 905 557 1348 4958 1968 1020 952 1606
internal_value=1.19292e-12 -0.0370901 0.0990291 0.00608613 0.0810127 0.128247 -0.0720292 -0.0801003 -0.0483543 -0.0055758 0.0291327 -0.104037 0.0461922 0.022521 0.174874 0.0941763 -0.0318093 0.00541212 -0.0520034 0.0450663 -0.00684462 0.0474009 0.0410971 0.259189 0.0660137 0.0396269 -0.0337431 -0.075484 -0.0216916 0.113285
internal_weight=114800 83519 31281 37356 28118 11932 46163 43191 18567 34286 14759 24624 16186 10839 7961 5347 19527 6868 12659 8850 3305 1999 2746 3163 9826 6306 9990 3940 1972 3520
internal_count=114800 83519 31281 37356 28118 11932 46163 43191 18567 34286 14759 24624 16186 10839 7961 5347 19527 6868 12659 8850 3305 1999 2746 3163 9826 6306 9990 3940 1972 3520
is_linear=0
shrinkage=0.05


Tree=32
num_leaves=31
num_cat=0
split_feature=7 7 7 0 0 0 0 0 2 2 0 0 0 7 0 0 0 2 2 0 0 0 0 0 0 0 0 0 0 2
split_gain=152853 37049.6 26095.1 16997.3 16435.9 13448.4 12452.2 11930.2 11774.9 10646 10040.3 10035.4 9617.29 8749.77 8046.39 15691.5 7525.57 7445.5 9711.51 7348.83 7314.1 7669.82 10643 6780.77 8690.85 6716.32 6265.71 12702.8 5992.83 5835.21
threshold=29.214285714285719 37.785714285714292 23.500000000000004 14.006310009782299 14.468588775980704 14.006310009782299 17.013569467450271 14.427899888839521 3.5000000000000004 5.5000000000000009 16.989424982858974 12.805924930044531 12.625445936171866 17.928571428571434 17.798269645942732 18.983422377220048 16.610665276207545 3.5000000000000004 5.5000000000000009 11.986052891326006 16.682796551524451 15.994590374254363 15.493527888868531 15.994590374254363 15.453196291561733 16.331960207222547 17.723184003113776 18.983422377220048 11.986052891326006 3.5000000000000004
decision_type=2 2 2 2 2 2 2 2 2 2 2 2 2 2 2 2 2 2 2 2 2 2 2 2 2 2 2 2 2 2
left_child=2 3 13 12 -5 11 20 -7 -3 -10 16 28 19 -1 -8 -16 23 -15 -19 -2 21 22 -6 24 -9 -23 -12 -28 -4 -14
right_child=1 8 5 4 6 7 14 10 9 -11 26 -13 29 17 15 -17 -18 18 -20 -21 -22 25 -24 -25 -26 -27 27 -29 -30 -31
leaf_value=-0.16997096848800217 0.076304502509943972 0.10151255066197147 0.0055043195354427836 -0.069330857055542927 0.032906892817102344 -0.12442049029543434 -0.074453523932621335 -0.037194566671056931 0.25757608006161276 0.099975470690734924 -0.12643633494618062 0.064035648628046865 0.088118693873252829 -0.10406410561864077 0.12143596875756829 -0.078971313390486408 0.073051456467158507 -0.010662206430770482 -0.11688978444097096 -0.038235760297019555 0.15021757810515277 -0.073152368525886455 0.16401173775060979 -0.078510616965097257 0.07929551370281325 0.055907944484409333 0.045060093908599087 -0.13396170395384979 -0.085538518437041688 0.17988285506554361
leaf_weight=3006 5110 6445 6317 4467 4081 4184 3230 4361 3204 1610 3522 5809 4040 12883 2187 1765 2483 6460 3226 1929 2161 1905 2494 3677 2530 2141 2215 1793 2532 3033
leaf_count=3006 5110 6445 6317 4467 4081 4184 3230 4361 3204 1610 3522 5809 4040 12883 2187 1765 2483 6460 3226 1929 2161 1905 2494 3677 2530 2141 2215 1793 2532 3033
internal_value=-1.31591e-11 0.0659118 -0.0505021 0.0426032 0.0173678 -0.024985 0.0367668 -0.0474522 0.145704 0.204868 -0.031805 0.0129738 0.0862913 -0.089836 -0.0159132 0.0319322 -0.00527811 -0.0791627 -0.0460422 0.0449154 0.0663669 0.0493063 0.082637 -0.023682 0.00557425 -0.00485822 -0.0777814 -0.0350263 -0.0205461 0.127468
internal_weight=114800 49802 64998 38543 24431 39423 19964 24765 11259 4814 20581 14658 14112 25575 7182 3952 13051 22569 9686 7039 12782 10621 6575 10568 6891 4046 7530 4008 8849 7073
internal_count=114800 49802 64998 38543 24431 39423 19964 24765 11259 4814 20581 14658 14112 25575 7182 3952 13051 22569 9686 7039 12782 10621 6575 10568 6891 4046 7530 4008 8849 7073
is_linear=0
shrinkage=0.05


Tree=33
num_leaves=31
num_cat=0
split_feature=7 7 1 8 8 8 2 2 1 7 8 2 2 7 7 2 2 2 2 7 2 2 2 2 2 2 2 2 2 2
